{"learner":{"attributes":{"best_iteration":"104","best_score":"1290.1940566637434","scikit_learn":"{\"_estimator_type\": \"regressor\"}"},"feature_names":["dayofweek","quarter","month","dayofyear","lag_1","lag_7","rolling_mean_7","rolling_std_7"],"feature_types":["int","int","int","int","float","float","float","float"],"gradient_booster":{"model":{"gbtree_model_param":{"num_parallel_tree":"1","num_trees":"155"},"iteration_indptr":[0,1,2,3,4,5,6,7,8,9,10,11,12,13,14,15,16,17,18,19,20,21,22,23,24,25,26,27,28,29,30,31,32,33,34,35,36,37,38,39,40,41,42,43,44,45,46,47,48,49,50,51,52,53,54,55,56,57,58,59,60,61,62,63,64,65,66,67,68,69,70,71,72,73,74,75,76,77,78,79,80,81,82,83,84,85,86,87,88,89,90,91,92,93,94,95,96,97,98,99,100,101,102,103,104,105,106,107,108,109,110,111,112,113,114,115,116,117,118,119,120,121,122,123,124,125,126,127,128,129,130,131,132,133,134,135,136,137,138,139,140,141,142,143,144,145,146,147,148,149,150,151,152,153,154,155],"tree_info":[0,0,0,0,0,0,0,0,0,0,0,0,0,0,0,0,0,0,0,0,0,0,0,0,0,0,0,0,0,0,0,0,0,0,0,0,0,0,0,0,0,0,0,0,0,0,0,0,0,0,0,0,0,0,0,0,0,0,0,0,0,0,0,0,0,0,0,0,0,0,0,0,0,0,0,0,0,0,0,0,0,0,0,0,0,0,0,0,0,0,0,0,0,0,0,0,0,0,0,0,0,0,0,0,0,0,0,0,0,0,0,0,0,0,0,0,0,0,0,0,0,0,0,0,0,0,0,0,0,0,0,0,0,0,0,0,0,0,0,0,0,0,0,0,0,0,0,0,0,0,0,0,0,0,0],"trees":[{"base_weights":[-1.835151E-4,7.184358E2,-3.3808768E2,4.6144745E2,1.3748314E3,-3.0106372E3,1.21302414E2,5.6892696E1,3.413387E2,1.6706857E3,2.9148804E2,-1.2343461E3,-1.7721739E2,1.0379083E3,-3.708153E1,5.5874268E1,4.8820703E2,1.8756155E3,-4.3420653E0,2.711058E1,-1.1517066E1,-1.3946191E3,-1.4831347E1,6.957935E0,1.1012076E3,-1.5517195E2,5.471391E2,1.9192696E1,-7.8048644E0,6.6605797E0,2.5928192E1,2.1082935E1,1.00232635E2,-1.7552784E1,-8.127276E1,1.1207934E1,5.8028065E1,-2.2310102E0,-6.082011E1,-8.942365E0,7.1196556E1],"categories":[],"categories_nodes":[],"categories_segments":[],"categories_sizes":[],"default_left":[0,0,0,0,0,0,0,0,0,0,0,0,0,0,0,0,0,0,0,0,0,0,0,0,0,0,0,0,0,0,0,0,0,0,0,0,0,0,0,0,0],"id":0,"left_children":[1,3,5,7,9,11,13,-1,15,17,19,21,-1,23,25,27,29,31,-1,-1,-1,33,-1,-1,35,37,39,-1,-1,-1,-1,-1,-1,-1,-1,-1,-1,-1,-1,-1,-1],"loss_changes":[3.6434132E7,7.462514E6,1.2559497E8,2.53633E6,3.679668E6,9.845424E6,1.2813946E7,0E0,1.3143432E6,3.764578E6,6.482334E5,3.37774E5,0E0,5.8633E5,5.3282065E6,8.941868E5,1.572285E5,8.43252E5,0E0,0E0,0E0,3.929425E5,0E0,0E0,3.64522E5,7.4542585E6,8.529675E6,0E0,0E0,0E0,0E0,0E0,0E0,0E0,0E0,0E0,0E0,0E0,0E0,0E0,0E0],"parents":[2147483647,0,0,1,1,2,2,3,3,4,4,5,5,6,6,8,8,9,9,10,10,11,11,13,13,14,14,15,15,16,16,17,17,21,21,24,24,25,25,26,26],"right_children":[2,4,6,8,10,12,14,-1,16,18,20,22,-1,24,26,28,30,32,-1,-1,-1,34,-1,-1,36,38,40,-1,-1,-1,-1,-1,-1,-1,-1,-1,-1,-1,-1,-1,-1],"split_conditions":[3E0,8.352429E3,4E0,7.626E3,1.0907E4,8.435E3,3.73E3,5.6892696E1,8.02E3,1.0833E4,4E0,1.01E2,-1.7721739E2,1.8E1,3.4848313E3,7.2E1,7.655E3,4E0,-4.3420653E0,2.711058E1,-1.1517066E1,3E0,-1.4831347E1,6.957935E0,1.6385249E3,1.006E4,6E0,1.9192696E1,-7.8048644E0,6.6605797E0,2.5928192E1,2.1082935E1,1.00232635E2,-1.7552784E1,-8.127276E1,1.1207934E1,5.8028065E1,-2.2310102E0,-6.082011E1,-8.942365E0,7.1196556E1],"split_indices":[0,6,0,6,4,5,4,0,4,5,1,3,0,3,7,3,6,1,0,0,0,2,0,0,7,5,0,0,0,0,0,0,0,0,0,0,0,0,0,0,0],"split_type":[0,0,0,0,0,0,0,0,0,0,0,0,0,0,0,0,0,0,0,0,0,0,0,0,0,0,0,0,0,0,0,0,0,0,0,0,0,0,0,0,0],"sum_hessian":[1.48E2,4.7E1,1.01E2,3.5E1,1.2E1,1.4E1,8.7E1,4E0,3.1E1,9E0,3E0,4E0,1E1,1.2E1,7.5E1,1.1E1,2E1,8E0,1E0,2E0,1E0,3E0,1E0,1E0,1.1E1,6.3E1,1.2E1,4E0,7E0,2E0,1.8E1,1E0,7E0,1E0,2E0,1E0,1E1,5.8E1,5E0,7E0,5E0],"tree_param":{"num_deleted":"0","num_feature":"8","num_nodes":"41","size_leaf_vector":"1"}},{"base_weights":[1.20589085E-1,6.8737744E2,-3.232956E2,4.4117728E2,1.3162874E3,-2.8794968E3,1.1609436E2,1.0923398E3,3.2564633E2,1.5988489E3,2.80812E2,-2.8866138E1,-1.5946341E2,9.918738E2,-3.5237576E1,6.004093E1,1.646062E1,3.7884796E2,-3.149186E2,1.7953143E3,-4.2335205E0,2.62069E1,-1.1229151E1,6.7839847E0,1.0519166E3,-1.4839812E2,5.2457104E2,5.6177574E-1,2.2596052E1,-2.3521948E1,-9.694824E-2,2.055586E1,9.5847466E1,1.0927734E1,5.539041E1,-2.1213288E0,-5.828593E1,-8.551135E0,6.823005E1],"categories":[],"categories_nodes":[],"categories_segments":[],"categories_sizes":[],"default_left":[0,0,0,0,0,0,0,0,0,0,0,0,0,0,0,0,0,0,0,0,0,0,0,0,0,0,0,0,0,0,0,0,0,0,0,0,0,0,0],"id":1,"left_children":[1,3,5,7,9,11,13,15,17,19,21,-1,-1,23,25,-1,-1,27,29,31,-1,-1,-1,-1,33,35,37,-1,-1,-1,-1,-1,-1,-1,-1,-1,-1,-1,-1],"loss_changes":[3.3340454E7,6.851496E6,1.1489755E8,2.352542E6,3.354634E6,8.855976E6,1.169789E7,1.85915E4,1.209837E6,3.459544E6,6.096155E5,0E0,0E0,5.25585E5,4.8923125E6,0E0,0E0,8.007995E5,1.4511194E5,7.2721E5,0E0,0E0,0E0,0E0,3.16819E5,6.8501915E6,7.829532E6,0E0,0E0,0E0,0E0,0E0,0E0,0E0,0E0,0E0,0E0,0E0,0E0],"parents":[2147483647,0,0,1,1,2,2,3,3,4,4,5,5,6,6,7,7,8,8,9,9,10,10,13,13,14,14,17,17,18,18,19,19,24,24,25,25,26,26],"right_children":[2,4,6,8,10,12,14,16,18,20,22,-1,-1,24,26,-1,-1,28,30,32,-1,-1,-1,-1,34,36,38,-1,-1,-1,-1,-1,-1,-1,-1,-1,-1,-1,-1],"split_conditions":[3E0,8.352429E3,4E0,7.626E3,1.0907E4,8.044E3,3.73E3,8.29E3,1.1E1,1.0833E4,4E0,-2.8866138E1,-1.5946341E2,1.8E1,3.4848313E3,6.004093E1,1.646062E1,1.1255469E3,1E0,4E0,-4.2335205E0,2.62069E1,-1.1229151E1,6.7839847E0,1.6385249E3,1.006E4,6E0,5.6177574E-1,2.2596052E1,-2.3521948E1,-9.694824E-2,2.055586E1,9.5847466E1,1.0927734E1,5.539041E1,-2.1213288E0,-5.828593E1,-8.551135E0,6.823005E1],"split_indices":[0,6,0,6,4,5,4,4,2,5,1,0,0,3,7,0,0,7,0,1,0,0,0,0,7,5,0,0,0,0,0,0,0,0,0,0,0,0,0],"split_type":[0,0,0,0,0,0,0,0,0,0,0,0,0,0,0,0,0,0,0,0,0,0,0,0,0,0,0,0,0,0,0,0,0,0,0,0,0,0,0],"sum_hessian":[1.48E2,4.7E1,1.01E2,3.5E1,1.2E1,1.4E1,8.7E1,4E0,3.1E1,9E0,3E0,2E0,1.2E1,1.2E1,7.5E1,3E0,1E0,2.9E1,2E0,8E0,1E0,2E0,1E0,1E0,1.1E1,6.3E1,1.2E1,5E0,2.4E1,1E0,1E0,1E0,7E0,1E0,1E1,5.8E1,5E0,7E0,5E0],"tree_param":{"num_deleted":"0","num_feature":"8","num_nodes":"39","size_leaf_vector":"1"}},{"base_weights":[6.999266E-1,6.572418E2,-3.0826782E2,4.2123087E2,1.2602535E3,-2.7480774E3,1.1111185E2,1.0530231E3,3.0934988E2,1.5301233E3,2.7051587E2,-1.1200283E3,-1.6191373E2,9.479032E2,-3.3485504E1,5.7789394E1,1.6049097E1,4.455949E1,4.4592773E2,1.7184822E3,-4.1276855E0,2.5333334E1,-1.0948413E1,-1.2952955E3,-1.0473987E1,6.61438E0,1.00484717E3,3.4268445E2,-1.9308594E2,1.7521172E1,-7.608771E0,6.0526204E0,2.3687698E1,2.0041967E1,9.165414E1,-2.790393E1,-8.767366E1,1.0654541E1,5.2872658E1,8.149907E0,7.431302E1,-1.25920105E1,7.302227E1],"categories":[],"categories_nodes":[],"categories_segments":[],"categories_sizes":[],"default_left":[0,0,0,0,0,0,0,0,0,0,0,0,0,0,0,0,0,0,0,0,0,0,0,0,0,0,0,0,0,0,0,0,0,0,0,0,0,0,0,0,0,0,0],"id":2,"left_children":[1,3,5,7,9,11,13,15,17,19,21,23,-1,25,27,-1,-1,29,31,33,-1,-1,-1,35,-1,-1,37,39,41,-1,-1,-1,-1,-1,-1,-1,-1,-1,-1,-1,-1,-1,-1],"loss_changes":[3.0427296E7,6.300376E6,1.0467242E8,2.218927E6,3.058382E6,8.344024E6,1.0679549E7,5.1535E3,1.1373938E6,3.179488E6,5.733121E5,5.266085E5,0E0,4.70847E5,4.628971E6,0E0,0E0,7.7541525E5,1.3249225E5,6.2425E5,0E0,0E0,0E0,3.72529E5,0E0,0E0,2.7448E5,4.483896E6,5.6140085E6,0E0,0E0,0E0,0E0,0E0,0E0,0E0,0E0,0E0,0E0,0E0,0E0,0E0,0E0],"parents":[2147483647,0,0,1,1,2,2,3,3,4,4,5,5,6,6,7,7,8,8,9,9,10,10,11,11,13,13,14,14,17,17,18,18,19,19,23,23,26,26,27,27,28,28],"right_children":[2,4,6,8,10,12,14,16,18,20,22,24,-1,26,28,-1,-1,30,32,34,-1,-1,-1,36,-1,-1,38,40,42,-1,-1,-1,-1,-1,-1,-1,-1,-1,-1,-1,-1,-1,-1],"split_conditions":[3E0,8.352429E3,4E0,7.626E3,1.0907E4,8.435E3,3.73E3,8.29E3,8.02E3,1.0833E4,4E0,1.01E2,-1.6191373E2,1.8E1,7.531E3,5.7789394E1,1.6049097E1,7.2E1,7.655E3,4E0,-4.1276855E0,2.5333334E1,-1.0948413E1,8.044E3,-1.0473987E1,6.61438E0,1.6385249E3,8.216857E3,1.0257E4,1.7521172E1,-7.608771E0,6.0526204E0,2.3687698E1,2.0041967E1,9.165414E1,-2.790393E1,-8.767366E1,1.0654541E1,5.2872658E1,8.149907E0,7.431302E1,-1.25920105E1,7.302227E1],"split_indices":[0,6,0,6,4,5,4,4,4,5,1,3,0,3,5,0,0,3,6,1,0,0,0,5,0,0,7,6,6,0,0,0,0,0,0,0,0,0,0,0,0,0,0],"split_type":[0,0,0,0,0,0,0,0,0,0,0,0,0,0,0,0,0,0,0,0,0,0,0,0,0,0,0,0,0,0,0,0,0,0,0,0,0,0,0,0,0,0,0],"sum_hessian":[1.48E2,4.7E1,1.01E2,3.5E1,1.2E1,1.4E1,8.7E1,4E0,3.1E1,9E0,3E0,4E0,1E1,1.2E1,7.5E1,3E0,1E0,1.1E1,2E1,8E0,1E0,2E0,1E0,3E0,1E0,1E0,1.1E1,2.2E1,5.3E1,4E0,7E0,2E0,1.8E1,1E0,7E0,2E0,1E0,1E0,1E1,2E1,2E0,5.2E1,1E0],"tree_param":{"num_deleted":"0","num_feature":"8","num_nodes":"43","size_leaf_vector":"1"}},{"base_weights":[1.7420301E0,6.2928485E2,-2.935893E2,4.033219E2,1.2066218E3,-2.6298713E3,1.07976814E2,5.0756992E1,2.9512152E2,1.4643738E3,2.6058643E2,-1.089237E3,-1.5455402E2,9.0590326E2,-2.9931345E1,3.4499365E2,-3.0197363E2,1.6449686E3,-4.0244875E0,2.44889E1,-1.0674707E1,-1.259425E3,-1.0212134E1,6.4490237E0,9.5989844E2,-6.8302E1,7.119671E1,4.8075357E-1,2.0584238E1,-2.2743702E1,9.567871E-2,1.9540918E1,8.764426E1,-2.6973795E1,-8.548181E1,1.0388184E1,5.0469337E1,5.802116E-1,-5.946551E1],"categories":[],"categories_nodes":[],"categories_segments":[],"categories_sizes":[],"default_left":[0,0,0,0,0,0,0,0,0,0,0,0,0,0,0,0,0,0,0,0,0,0,0,0,0,0,0,0,0,0,0,0,0,0,0,0,0,0,0],"id":3,"left_children":[1,3,5,7,9,11,13,-1,15,17,19,21,-1,23,25,27,29,31,-1,-1,-1,33,-1,-1,35,37,-1,-1,-1,-1,-1,-1,-1,-1,-1,-1,-1,-1,-1],"loss_changes":[2.7799376E7,5.77527E6,9.597748E7,2.0835715E6,2.788358E6,7.2914E6,9.710686E6,0E0,1.0570882E6,2.922346E6,5.3918575E5,4.958485E5,0E0,4.21542E5,4.3369765E6,6.6704475E5,1.4026384E5,5.33032E5,0E0,0E0,0E0,3.74209E5,0E0,0E0,2.36948E5,6.7319665E6,0E0,0E0,0E0,0E0,0E0,0E0,0E0,0E0,0E0,0E0,0E0,0E0,0E0],"parents":[2147483647,0,0,1,1,2,2,3,3,4,4,5,5,6,6,8,8,9,9,10,10,11,11,13,13,14,14,15,15,16,16,17,17,21,21,24,24,25,25],"right_children":[2,4,6,8,10,12,14,-1,16,18,20,22,-1,24,26,28,30,32,-1,-1,-1,34,-1,-1,36,38,-1,-1,-1,-1,-1,-1,-1,-1,-1,-1,-1,-1,-1],"split_conditions":[3E0,8.352429E3,4E0,7.626E3,1.0907E4,8.435E3,3.73E3,5.0756992E1,1.1E1,1.0833E4,4E0,1.01E2,-1.5455402E2,1.8E1,1.0257E4,1.1255469E3,1E0,4E0,-4.0244875E0,2.44889E1,-1.0674707E1,8.044E3,-1.0212134E1,6.4490237E0,1.6385249E3,9.005857E3,7.119671E1,4.8075357E-1,2.0584238E1,-2.2743702E1,9.567871E-2,1.9540918E1,8.764426E1,-2.6973795E1,-8.548181E1,1.0388184E1,5.0469337E1,5.802116E-1,-5.946551E1],"split_indices":[0,6,0,6,4,5,4,0,2,5,1,3,0,3,6,7,0,1,0,0,0,5,0,0,7,6,0,0,0,0,0,0,0,0,0,0,0,0,0],"split_type":[0,0,0,0,0,0,0,0,0,0,0,0,0,0,0,0,0,0,0,0,0,0,0,0,0,0,0,0,0,0,0,0,0,0,0,0,0,0,0],"sum_hessian":[1.48E2,4.7E1,1.01E2,3.5E1,1.2E1,1.4E1,8.7E1,4E0,3.1E1,9E0,3E0,4E0,1E1,1.2E1,7.5E1,2.9E1,2E0,8E0,1E0,2E0,1E0,3E0,1E0,1E0,1.1E1,7.4E1,1E0,5E0,2.4E1,1E0,1E0,1E0,7E0,2E0,1E0,1E0,1E1,7E1,4E0],"tree_param":{"num_deleted":"0","num_feature":"8","num_nodes":"39","size_leaf_vector":"1"}},{"base_weights":[1.4439001E0,6.0128217E2,-2.8084708E2,3.8452197E2,1.1552886E3,-2.5168591E3,1.0348278E2,9.7453436E2,2.8031622E2,1.3445353E3,7.6288086E1,-2.6074675E1,-1.3918619E2,8.6578516E2,-2.8272667E1,5.371892E1,1.4378955E1,3.463249E1,4.0735855E2,1.4946843E3,-3.923877E0,1.6129444E1,-1.0407837E1,6.287793E0,9.169746E2,-3.2746982E2,1.530813E2,1.5996953E1,-7.400659E0,2.442095E1,1.2250456E1,2.5621225E1,8.380981E1,1.0128467E1,4.817526E1,-2.1068497E1,3.133939E1,-6.301792E0,3.877707E1],"categories":[],"categories_nodes":[],"categories_segments":[],"categories_sizes":[],"default_left":[0,0,0,0,0,0,0,0,0,0,0,0,0,0,0,0,0,0,0,0,0,0,0,0,0,0,0,0,0,0,0,0,0,0,0,0,0,0,0],"id":4,"left_children":[1,3,5,7,9,11,13,15,17,19,21,-1,-1,23,25,-1,-1,27,29,31,-1,-1,-1,-1,33,35,37,-1,-1,-1,-1,-1,-1,-1,-1,-1,-1,-1,-1],"loss_changes":[2.5398878E7,5.319922E6,8.791581E7,1.940199E6,2.551992E6,6.535688E6,8.862977E6,3.3973E4,9.846835E5,2.467604E6,2.77326E5,0E0,0E0,3.77147E5,4.1739345E6,0E0,0E0,6.726753E5,1.566955E5,9.23992E5,0E0,0E0,0E0,0E0,2.03724E5,2.8626512E6,8.437232E6,0E0,0E0,0E0,0E0,0E0,0E0,0E0,0E0,0E0,0E0,0E0,0E0],"parents":[2147483647,0,0,1,1,2,2,3,3,4,4,5,5,6,6,7,7,8,8,9,9,10,10,13,13,14,14,17,17,18,18,19,19,24,24,25,25,26,26],"right_children":[2,4,6,8,10,12,14,16,18,20,22,-1,-1,24,26,-1,-1,28,30,32,-1,-1,-1,-1,34,36,38,-1,-1,-1,-1,-1,-1,-1,-1,-1,-1,-1,-1],"split_conditions":[3E0,8.352429E3,4E0,7.626E3,9.643571E3,8.044E3,3.73E3,8.29E3,8.02E3,1.0833E4,2E0,-2.6074675E1,-1.3918619E2,1.8E1,1.7774274E3,5.371892E1,1.4378955E1,7.2E1,2.28E2,4E0,-3.923877E0,1.6129444E1,-1.0407837E1,6.287793E0,1.6385249E3,8.828E3,6E0,1.5996953E1,-7.400659E0,2.442095E1,1.2250456E1,2.5621225E1,8.380981E1,1.0128467E1,4.817526E1,-2.1068497E1,3.133939E1,-6.301792E0,3.877707E1],"split_indices":[0,6,0,6,6,5,4,4,4,5,1,0,0,3,7,0,0,3,3,1,0,0,0,0,7,5,0,0,0,0,0,0,0,0,0,0,0,0,0],"split_type":[0,0,0,0,0,0,0,0,0,0,0,0,0,0,0,0,0,0,0,0,0,0,0,0,0,0,0,0,0,0,0,0,0,0,0,0,0,0,0],"sum_hessian":[1.48E2,4.7E1,1.01E2,3.5E1,1.2E1,1.4E1,8.7E1,4E0,3.1E1,1E1,2E0,2E0,1.2E1,1.2E1,7.5E1,3E0,1E0,1.1E1,2E1,9E0,1E0,1E0,1E0,1E0,1.1E1,2.8E1,4.7E1,4E0,7E0,1.2E1,8E0,2E0,7E0,1E0,1E1,2.6E1,2E0,3.3E1,1.4E1],"tree_param":{"num_deleted":"0","num_feature":"8","num_nodes":"39","size_leaf_vector":"1"}},{"base_weights":[2.4902835E0,5.7589716E2,-2.6737268E2,3.6844498E2,1.1060803E3,-2.4020337E3,9.952832E1,9.3942737E2,2.677151E2,1.2869003E3,7.438086E1,-9.932046E2,-1.412022E2,8.274648E2,-2.6296707E1,2.1131641E1,5.7153973E1,3.145118E2,-2.8949057E2,1.4308933E3,-3.8257813E0,1.5726196E1,-1.0147632E1,-1.1767339E3,-6.4771852E0,6.130591E0,8.7598486E2,3.299783E2,-1.775565E2,2.3872884E-1,1.8813414E1,-2.1990088E1,2.782959E-1,2.4767187E1,8.014314E1,-2.5205519E1,-7.986511E1,5.732152E1,2.9872913E1,7.995384E0,7.0523994E1,-1.162825E1,6.8447365E1],"categories":[],"categories_nodes":[],"categories_segments":[],"categories_sizes":[],"default_left":[0,0,0,0,0,0,0,0,0,0,0,0,0,0,0,0,0,0,0,0,0,0,0,0,0,0,0,0,0,0,0,0,0,0,0,0,0,0,0,0,0,0,0],"id":5,"left_children":[1,3,5,7,9,11,13,15,17,19,21,23,-1,25,27,-1,-1,29,31,33,-1,-1,-1,35,-1,-1,37,39,41,-1,-1,-1,-1,-1,-1,-1,-1,-1,-1,-1,-1,-1,-1],"loss_changes":[2.321043E7,4.871877E6,8.012641E7,1.8190415E6,2.329453E6,6.113256E6,8.08191E6,4.3128E4,9.25461E5,2.269034E6,2.636326E5,6.400965E5,0E0,3.37188E5,4.1542358E6,0E0,0E0,5.7205175E5,1.354988E5,8.14892E5,0E0,0E0,0E0,3.263205E5,0E0,0E0,2.18971E5,4.0009695E6,4.912196E6,0E0,0E0,0E0,0E0,0E0,0E0,0E0,0E0,0E0,0E0,0E0,0E0,0E0,0E0],"parents":[2147483647,0,0,1,1,2,2,3,3,4,4,5,5,6,6,7,7,8,8,9,9,10,10,11,11,13,13,14,14,17,17,18,18,19,19,23,23,26,26,27,27,28,28],"right_children":[2,4,6,8,10,12,14,16,18,20,22,24,-1,26,28,-1,-1,30,32,34,-1,-1,-1,36,-1,-1,38,40,42,-1,-1,-1,-1,-1,-1,-1,-1,-1,-1,-1,-1,-1,-1],"split_conditions":[3E0,8.352429E3,4E0,7.626E3,9.643571E3,8.435E3,3.73E3,1E0,1.1E1,1.0833E4,2E0,1.01E2,-1.412022E2,1.8E1,7.531E3,2.1131641E1,5.7153973E1,1.1255469E3,1E0,4E0,-3.8257813E0,1.5726196E1,-1.0147632E1,8.044E3,-6.4771852E0,6.130591E0,4E0,8.216857E3,1.0257E4,2.3872884E-1,1.8813414E1,-2.1990088E1,2.782959E-1,2.4767187E1,8.014314E1,-2.5205519E1,-7.986511E1,5.732152E1,2.9872913E1,7.995384E0,7.0523994E1,-1.162825E1,6.8447365E1],"split_indices":[0,6,0,6,6,5,4,0,2,5,1,3,0,3,5,0,0,7,0,1,0,0,0,5,0,0,1,6,6,0,0,0,0,0,0,0,0,0,0,0,0,0,0],"split_type":[0,0,0,0,0,0,0,0,0,0,0,0,0,0,0,0,0,0,0,0,0,0,0,0,0,0,0,0,0,0,0,0,0,0,0,0,0,0,0,0,0,0,0],"sum_hessian":[1.48E2,4.7E1,1.01E2,3.5E1,1.2E1,1.4E1,8.7E1,4E0,3.1E1,1E1,2E0,4E0,1E1,1.2E1,7.5E1,2E0,2E0,2.9E1,2E0,9E0,1E0,1E0,1E0,3E0,1E0,1E0,1.1E1,2.2E1,5.3E1,5E0,2.4E1,1E0,1E0,2E0,7E0,2E0,1E0,4E0,7E0,2E1,2E0,5.2E1,1E0],"tree_param":{"num_deleted":"0","num_feature":"8","num_nodes":"43","size_leaf_vector":"1"}},{"base_weights":[3.4274395E0,5.508999E2,-2.5424028E2,3.5212344E2,1.058981E3,-2.298782E3,9.7150246E1,9.081129E2,2.5424625E2,1.2317444E3,7.252116E1,-9.658539E2,-1.3478392E2,7.932704E2,-2.3201223E1,2.0427246E1,5.524883E1,2.9942133E2,-2.8225327E2,1.3698394E3,-3.730127E0,1.5333033E1,-9.893946E0,-1.1441648E3,-6.315259E0,5.9773192E0,8.3945184E2,3.1689346E2,-1.6762672E2,2.2880046E-1,1.7910368E1,-2.1440332E1,2.713379E-1,2.3941603E1,7.663686E1,-2.4365332E1,-7.7868484E1,5.0893932E1,2.456893E1,7.6146646E0,6.817318E1,-1.1057821E1,6.673618E1],"categories":[],"categories_nodes":[],"categories_segments":[],"categories_sizes":[],"default_left":[0,0,0,0,0,0,0,0,0,0,0,0,0,0,0,0,0,0,0,0,0,0,0,0,0,0,0,0,0,0,0,0,0,0,0,0,0,0,0,0,0,0,0],"id":6,"left_children":[1,3,5,7,9,11,13,15,17,19,21,23,-1,25,27,-1,-1,29,31,33,-1,-1,-1,35,-1,-1,37,39,41,-1,-1,-1,-1,-1,-1,-1,-1,-1,-1,-1,-1,-1,-1],"loss_changes":[2.1158894E7,4.474845E6,7.350345E7,1.7281885E6,2.126188E6,5.33188E6,7.390964E6,4.030125E4,8.600776E5,2.086593E6,2.5061567E5,6.039895E5,0E0,3.041235E5,3.786114E6,0E0,0E0,5.183445E5,1.28808484E5,7.17508E5,0E0,0E0,0E0,3.267515E5,0E0,0E0,2.45103E5,3.7544625E6,4.6378825E6,0E0,0E0,0E0,0E0,0E0,0E0,0E0,0E0,0E0,0E0,0E0,0E0,0E0,0E0],"parents":[2147483647,0,0,1,1,2,2,3,3,4,4,5,5,6,6,7,7,8,8,9,9,10,10,11,11,13,13,14,14,17,17,18,18,19,19,23,23,26,26,27,27,28,28],"right_children":[2,4,6,8,10,12,14,16,18,20,22,24,-1,26,28,-1,-1,30,32,34,-1,-1,-1,36,-1,-1,38,40,42,-1,-1,-1,-1,-1,-1,-1,-1,-1,-1,-1,-1,-1,-1],"split_conditions":[3E0,8.352429E3,4E0,7.626E3,9.643571E3,8.435E3,3.73E3,1E0,1.1E1,1.0833E4,2E0,1.01E2,-1.3478392E2,1.8E1,7.531E3,2.0427246E1,5.524883E1,1.1255469E3,1E0,4E0,-3.730127E0,1.5333033E1,-9.893946E0,8.044E3,-6.315259E0,5.9773192E0,2.024E3,8.216857E3,1.0257E4,2.2880046E-1,1.7910368E1,-2.1440332E1,2.713379E-1,2.3941603E1,7.663686E1,-2.4365332E1,-7.7868484E1,5.0893932E1,2.456893E1,7.6146646E0,6.817318E1,-1.1057821E1,6.673618E1],"split_indices":[0,6,0,6,6,5,4,0,2,5,1,3,0,3,5,0,0,7,0,1,0,0,0,5,0,0,4,6,6,0,0,0,0,0,0,0,0,0,0,0,0,0,0],"split_type":[0,0,0,0,0,0,0,0,0,0,0,0,0,0,0,0,0,0,0,0,0,0,0,0,0,0,0,0,0,0,0,0,0,0,0,0,0,0,0,0,0,0,0],"sum_hessian":[1.48E2,4.7E1,1.01E2,3.5E1,1.2E1,1.4E1,8.7E1,4E0,3.1E1,1E1,2E0,4E0,1E1,1.2E1,7.5E1,2E0,2E0,2.9E1,2E0,9E0,1E0,1E0,1E0,3E0,1E0,1E0,1.1E1,2.2E1,5.3E1,5E0,2.4E1,1E0,1E0,2E0,7E0,2E0,1E0,6E0,5E0,2E1,2E0,5.2E1,1E0],"tree_param":{"num_deleted":"0","num_feature":"8","num_nodes":"43","size_leaf_vector":"1"}},{"base_weights":[4.225943E0,5.269996E2,-2.418266E2,3.3653543E2,1.01390027E3,-2.2000652E3,9.4712105E1,8.778426E2,2.4143945E2,1.1789618E3,7.070801E1,-2.3553158E1,-1.2149149E2,7.5987146E2,-2.0311369E1,1.9746355E1,5.3407196E1,3.207084E1,3.654571E2,1.3114054E3,-3.6368654E0,1.4949707E1,-9.646606E0,5.827881E0,8.037678E2,-5.5285E1,6.506777E1,1.3888125E1,-5.399398E0,2.289937E1,1.007385E1,2.3143555E1,7.3284004E1,5.3519417E1,2.6832952E1,1.0185657E0,-5.592738E1],"categories":[],"categories_nodes":[],"categories_segments":[],"categories_sizes":[],"default_left":[0,0,0,0,0,0,0,0,0,0,0,0,0,0,0,0,0,0,0,0,0,0,0,0,0,0,0,0,0,0,0,0,0,0,0,0,0],"id":7,"left_children":[1,3,5,7,9,11,13,15,17,19,21,-1,-1,23,25,-1,-1,27,29,31,-1,-1,-1,-1,33,35,-1,-1,-1,-1,-1,-1,-1,-1,-1,-1,-1],"loss_changes":[1.929328E7,4.110169E6,6.742873E7,1.6411945E6,1.94054E6,4.814352E6,6.748221E6,3.765825E4,8.1917225E5,1.918963E6,2.3824175E5,0E0,0E0,2.734235E5,3.5849302E6,0E0,0E0,4.7734162E5,2.111885E5,6.30652E5,0E0,0E0,0E0,0E0,2.80166E5,6.0559765E6,0E0,0E0,0E0,0E0,0E0,0E0,0E0,0E0,0E0,0E0,0E0],"parents":[2147483647,0,0,1,1,2,2,3,3,4,4,5,5,6,6,7,7,8,8,9,9,10,10,13,13,14,14,17,17,18,18,19,19,24,24,25,25],"right_children":[2,4,6,8,10,12,14,16,18,20,22,-1,-1,24,26,-1,-1,28,30,32,-1,-1,-1,-1,34,36,-1,-1,-1,-1,-1,-1,-1,-1,-1,-1,-1],"split_conditions":[3E0,8.352429E3,4E0,7.626E3,9.643571E3,8.044E3,3.73E3,1E0,8.085E3,1.0833E4,2E0,-2.3553158E1,-1.2149149E2,1.8E1,1.0257E4,1.9746355E1,5.3407196E1,7.2E1,2.28E2,4E0,-3.6368654E0,1.4949707E1,-9.646606E0,5.827881E0,4E0,9.005857E3,6.506777E1,1.3888125E1,-5.399398E0,2.289937E1,1.007385E1,2.3143555E1,7.3284004E1,5.3519417E1,2.6832952E1,1.0185657E0,-5.592738E1],"split_indices":[0,6,0,6,6,5,4,0,4,5,1,0,0,3,6,0,0,3,3,1,0,0,0,0,1,6,0,0,0,0,0,0,0,0,0,0,0],"split_type":[0,0,0,0,0,0,0,0,0,0,0,0,0,0,0,0,0,0,0,0,0,0,0,0,0,0,0,0,0,0,0,0,0,0,0,0,0],"sum_hessian":[1.48E2,4.7E1,1.01E2,3.5E1,1.2E1,1.4E1,8.7E1,4E0,3.1E1,1E1,2E0,2E0,1.2E1,1.2E1,7.5E1,2E0,2E0,1.2E1,1.9E1,9E0,1E0,1E0,1E0,1E0,1.1E1,7.4E1,1E0,4E0,8E0,1.1E1,8E0,2E0,7E0,4E0,7E0,7E1,4E0],"tree_param":{"num_deleted":"0","num_feature":"8","num_nodes":"37","size_leaf_vector":"1"}},{"base_weights":[5.1153426E0,5.0508096E2,-2.3021275E2,3.228924E2,9.7075085E2,-2.0997314E3,9.107126E1,8.4858124E2,2.3066312E2,1.1284491E3,6.894043E1,-8.8125305E2,-1.23135025E2,-1.4286818E2,4.02646E2,1.9088152E1,5.1626953E1,2.7320038E2,-2.7159732E2,1.2554778E3,-3.5459473E0,1.4575976E1,-9.405444E0,-1.0703655E3,-3.1200807E0,-1.9471698E2,6.1239285E1,7.239865E2,1.3603534E2,-2.739258E-2,1.6398598E1,-2.0769337E1,3.9953613E-1,2.2372103E1,7.007782E1,-1.2540393E1,-6.2997437E1,1.1906352E1,-1.6145351E1,8.797656E0,3.926637E1,-5.103371E1,2.2489302E1],"categories":[],"categories_nodes":[],"categories_segments":[],"categories_sizes":[],"default_left":[0,0,0,0,0,0,0,0,0,0,0,0,0,0,0,0,0,0,0,0,0,0,0,0,0,0,0,0,0,0,0,0,0,0,0,0,0,0,0,0,0,0,0],"id":8,"left_children":[1,3,5,7,9,11,13,15,17,19,21,23,-1,25,27,-1,-1,29,31,33,-1,-1,-1,35,-1,37,-1,39,41,-1,-1,-1,-1,-1,-1,-1,-1,-1,-1,-1,-1,-1,-1],"loss_changes":[1.7647014E7,3.758861E6,6.145716E7,1.5496842E6,1.770984E6,4.463784E6,6.471812E6,3.5189E4,7.578736E5,1.764932E6,2.2647884E5,7.074825E5,0E0,3.8549578E6,3.1570785E6,0E0,0E0,4.499885E5,1.2392464E5,5.53253E5,0E0,0E0,0E0,3.054925E5,0E0,2.851207E6,0E0,4.33306E5,8.443291E6,0E0,0E0,0E0,0E0,0E0,0E0,0E0,0E0,0E0,0E0,0E0,0E0,0E0,0E0],"parents":[2147483647,0,0,1,1,2,2,3,3,4,4,5,5,6,6,7,7,8,8,9,9,10,10,11,11,13,13,14,14,17,17,18,18,19,19,23,23,25,25,27,27,28,28],"right_children":[2,4,6,8,10,12,14,16,18,20,22,24,-1,26,28,-1,-1,30,32,34,-1,-1,-1,36,-1,38,-1,40,42,-1,-1,-1,-1,-1,-1,-1,-1,-1,-1,-1,-1,-1,-1],"split_conditions":[3E0,8.352429E3,4E0,7.626E3,9.643571E3,8.435E3,2.5036907E3,1E0,1.1E1,1.0833E4,2E0,1.01E2,-1.23135025E2,3.64E2,7.944E3,1.9088152E1,5.1626953E1,1.1255469E3,1E0,4E0,-3.5459473E0,1.4575976E1,-9.405444E0,3E0,-3.1200807E0,5.942E3,6.1239285E1,1.459E3,5E0,-2.739258E-2,1.6398598E1,-2.0769337E1,3.9953613E-1,2.2372103E1,7.007782E1,-1.2540393E1,-6.2997437E1,1.1906352E1,-1.6145351E1,8.797656E0,3.926637E1,-5.103371E1,2.2489302E1],"split_indices":[0,6,0,6,6,5,7,0,2,5,1,3,0,3,4,0,0,7,0,1,0,0,0,2,0,4,0,5,0,0,0,0,0,0,0,0,0,0,0,0,0,0,0],"split_type":[0,0,0,0,0,0,0,0,0,0,0,0,0,0,0,0,0,0,0,0,0,0,0,0,0,0,0,0,0,0,0,0,0,0,0,0,0,0,0,0,0,0,0],"sum_hessian":[1.48E2,4.7E1,1.01E2,3.5E1,1.2E1,1.4E1,8.7E1,4E0,3.1E1,1E1,2E0,4E0,1E1,5E1,3.7E1,2E0,2E0,2.9E1,2E0,9E0,1E0,1E0,1E0,3E0,1E0,4.9E1,1E0,1.6E1,2.1E1,5E0,2.4E1,1E0,1E0,2E0,7E0,1E0,2E0,1.1E1,3.8E1,2E0,1.4E1,4E0,1.7E1],"tree_param":{"num_deleted":"0","num_feature":"8","num_nodes":"43","size_leaf_vector":"1"}},{"base_weights":[5.09801E0,4.831768E2,-2.1993022E2,3.0860114E2,9.294496E2,-2.0081975E3,8.738728E1,8.202953E2,2.1900513E2,1.0801085E3,6.72168E1,-2.1509083E1,-1.1089392E2,-1.3460698E2,3.8302728E2,1.8451887E1,4.9906055E1,1.0737468E1,3.275864E2,1.2019486E3,-3.4573E0,1.4211573E1,-9.170313E0,-1.8506577E2,5.97083E1,2.0422581E2,8.6324884E2,1.2676681E1,-7.1176147E0,1.2861339E1,2.8115406E1,2.1626368E1,6.70119E1,1.1360648E1,-1.5358774E1,2.8574972E1,-1.4588236E1,1.5907729E1,8.006758E1],"categories":[],"categories_nodes":[],"categories_segments":[],"categories_sizes":[],"default_left":[0,0,0,0,0,0,0,0,0,0,0,0,0,0,0,0,0,0,0,0,0,0,0,0,0,0,0,0,0,0,0,0,0,0,0,0,0,0,0],"id":9,"left_children":[1,3,5,7,9,11,13,15,17,19,21,-1,-1,23,25,-1,-1,27,29,31,-1,-1,-1,33,-1,35,37,-1,-1,-1,-1,-1,-1,-1,-1,-1,-1,-1,-1],"loss_changes":[1.6135868E7,3.452771E6,5.623121E7,1.4707985E6,1.616139E6,4.009104E6,5.827032E6,3.28815E4,7.201296E5,1.623387E6,2.1529644E5,0E0,0E0,3.640461E6,3.0865465E6,0E0,0E0,4.821263E5,2.0217275E5,4.84339E5,0E0,0E0,0E0,2.586956E6,0E0,5.449506E6,3.5138775E6,0E0,0E0,0E0,0E0,0E0,0E0,0E0,0E0,0E0,0E0,0E0,0E0],"parents":[2147483647,0,0,1,1,2,2,3,3,4,4,5,5,6,6,7,7,8,8,9,9,10,10,13,13,14,14,17,17,18,18,19,19,23,23,25,25,26,26],"right_children":[2,4,6,8,10,12,14,16,18,20,22,-1,-1,24,26,-1,-1,28,30,32,-1,-1,-1,34,-1,36,38,-1,-1,-1,-1,-1,-1,-1,-1,-1,-1,-1,-1],"split_conditions":[3E0,8.352429E3,4E0,7.626E3,9.643571E3,8.044E3,2.5036907E3,1E0,8.02E3,1.0833E4,2E0,-2.1509083E1,-1.1089392E2,3.64E2,6E0,1.8451887E1,4.9906055E1,7.2E1,2.6274785E3,4E0,-3.4573E0,1.4211573E1,-9.170313E0,5.942E3,5.97083E1,8.1415713E3,8.558E3,1.2676681E1,-7.1176147E0,1.2861339E1,2.8115406E1,2.1626368E1,6.70119E1,1.1360648E1,-1.5358774E1,2.8574972E1,-1.4588236E1,1.5907729E1,8.006758E1],"split_indices":[0,6,0,6,6,5,7,0,4,5,1,0,0,3,0,0,0,3,7,1,0,0,0,4,0,6,6,0,0,0,0,0,0,0,0,0,0,0,0],"split_type":[0,0,0,0,0,0,0,0,0,0,0,0,0,0,0,0,0,0,0,0,0,0,0,0,0,0,0,0,0,0,0,0,0,0,0,0,0,0,0],"sum_hessian":[1.48E2,4.7E1,1.01E2,3.5E1,1.2E1,1.4E1,8.7E1,4E0,3.1E1,1E1,2E0,2E0,1.2E1,5E1,3.7E1,2E0,2E0,1.1E1,2E1,9E0,1E0,1E0,1E0,4.9E1,1E0,2.8E1,9E0,4E0,7E0,1.7E1,3E0,2E0,7E0,1.1E1,3.8E1,1.6E1,1.2E1,6E0,3E0],"tree_param":{"num_deleted":"0","num_feature":"8","num_nodes":"39","size_leaf_vector":"1"}},{"base_weights":[6.4429693E0,4.6329117E2,-2.0860757E2,2.963625E2,8.899174E2,-1.9166144E3,8.490048E1,7.9295197E2,2.0950905E2,1.033847E3,6.553629E1,-7.999606E2,-1.1249733E2,6.817258E2,-1.830517E1,1.7836817E1,4.8242516E1,2.4948256E2,-2.6006235E2,1.1507152E3,-3.3708742E0,1.3856275E1,-8.941052E0,-9.972534E2,-2.6972657E-1,7.48808E2,1.0425797E1,-5.1017063E1,6.0877174E1,-6.267904E-2,1.4983996E1,-2.0072157E1,5.674805E-1,2.09055E1,6.408014E1,-2.0792107E1,-6.8537186E1,4.848826E1,2.0152473E1,1.6925144E0,-4.4013927E1],"categories":[],"categories_nodes":[],"categories_segments":[],"categories_sizes":[],"default_left":[0,0,0,0,0,0,0,0,0,0,0,0,0,0,0,0,0,0,0,0,0,0,0,0,0,0,0,0,0,0,0,0,0,0,0,0,0,0,0,0,0],"id":10,"left_children":[1,3,5,7,9,11,13,15,17,19,21,23,-1,25,27,-1,-1,29,31,33,-1,-1,-1,35,-1,37,-1,39,-1,-1,-1,-1,-1,-1,-1,-1,-1,-1,-1,-1,-1],"loss_changes":[1.4735219E7,3.154638E6,5.129673E7,1.3865675E6,1.474732E6,3.78338E6,5.432905E6,3.07265E4,6.655341E5,1.493309E6,2.04666E5,7.7843125E5,0E0,2.56533E5,3.1345638E6,0E0,0E0,3.7796475E5,1.1967353E5,4.23039E5,0E0,0E0,0E0,2.985925E5,0E0,4.495125E5,0E0,5.3080895E6,0E0,0E0,0E0,0E0,0E0,0E0,0E0,0E0,0E0,0E0,0E0,0E0,0E0],"parents":[2147483647,0,0,1,1,2,2,3,3,4,4,5,5,6,6,7,7,8,8,9,9,10,10,11,11,13,13,14,14,17,17,18,18,19,19,23,23,25,25,27,27],"right_children":[2,4,6,8,10,12,14,16,18,20,22,24,-1,26,28,-1,-1,30,32,34,-1,-1,-1,36,-1,38,-1,40,-1,-1,-1,-1,-1,-1,-1,-1,-1,-1,-1,-1,-1],"split_conditions":[3E0,8.352429E3,4E0,7.626E3,9.643571E3,8.435E3,3.73E3,1E0,1.1E1,1.0833E4,2E0,1.01E2,-1.1249733E2,3.8261094E3,1.0257E4,1.7836817E1,4.8242516E1,1.1255469E3,1E0,4E0,-3.3708742E0,1.3856275E1,-8.941052E0,8.044E3,-2.6972657E-1,2.024E3,1.0425797E1,1.006E4,6.0877174E1,-6.267904E-2,1.4983996E1,-2.0072157E1,5.674805E-1,2.09055E1,6.408014E1,-2.0792107E1,-6.8537186E1,4.848826E1,2.0152473E1,1.6925144E0,-4.4013927E1],"split_indices":[0,6,0,6,6,5,4,0,2,5,1,3,0,7,6,0,0,7,0,1,0,0,0,5,0,4,0,5,0,0,0,0,0,0,0,0,0,0,0,0,0],"split_type":[0,0,0,0,0,0,0,0,0,0,0,0,0,0,0,0,0,0,0,0,0,0,0,0,0,0,0,0,0,0,0,0,0,0,0,0,0,0,0,0,0],"sum_hessian":[1.48E2,4.7E1,1.01E2,3.5E1,1.2E1,1.4E1,8.7E1,4E0,3.1E1,1E1,2E0,4E0,1E1,1.2E1,7.5E1,2E0,2E0,2.9E1,2E0,9E0,1E0,1E0,1E0,3E0,1E0,1E1,2E0,7.4E1,1E0,5E0,2.4E1,1E0,1E0,2E0,7E0,2E0,1E0,5E0,5E0,6.8E1,6E0],"tree_param":{"num_deleted":"0","num_feature":"8","num_nodes":"41","size_leaf_vector":"1"}},{"base_weights":[6.413145E0,4.432103E2,-1.9920132E2,2.8325232E2,8.5207776E2,-1.8342566E3,8.176493E1,7.665203E2,1.9889006E2,1.1738845E3,4.0854562E2,-7.7788245E2,-1.07383804E2,-2.569908E2,2.5262776E2,4.23563E1,1.1102442E1,1.6252516E1,3.0765997E2,2.9231348E1,7.348354E1,3.3399845E1,-8.00275E0,-9.6972314E2,-2.629883E-1,-3.439416E2,3.2010677E1,4.1123425E2,-1.9932928E2,1.1570235E1,-5.2541156E0,2.0020672E1,7.490213E0,-2.0099041E1,-6.682375E1,-2.1275286E-1,-3.1902647E1,1.6482021E1,7.082349E1,-2.8849783E1,3.7346798E1],"categories":[],"categories_nodes":[],"categories_segments":[],"categories_sizes":[],"default_left":[0,0,0,0,0,0,0,0,0,0,0,0,0,0,0,0,0,0,0,0,0,0,0,0,0,0,0,0,0,0,0,0,0,0,0,0,0,0,0,0,0],"id":11,"left_children":[1,3,5,7,9,11,13,15,17,19,21,23,-1,25,27,-1,-1,29,31,-1,-1,-1,-1,33,-1,35,-1,37,39,-1,-1,-1,-1,-1,-1,-1,-1,-1,-1,-1,-1],"loss_changes":[1.3470248E7,2.897925E6,4.7008304E7,1.3152515E6,1.375926E6,3.295684E6,5.1584305E6,3.1334E4,6.306946E5,3.60852E5,1.1395854E6,7.3600175E5,0E0,2.5605752E6,4.3112865E6,0E0,0E0,3.6368738E5,2.3284975E5,0E0,0E0,0E0,0E0,2.95645E5,0E0,2.7946432E6,0E0,3.1419985E6,6.1489405E6,0E0,0E0,0E0,0E0,0E0,0E0,0E0,0E0,0E0,0E0,0E0,0E0],"parents":[2147483647,0,0,1,1,2,2,3,3,4,4,5,5,6,6,7,7,8,8,9,9,10,10,11,11,13,13,14,14,17,17,18,18,23,23,25,25,27,27,28,28],"right_children":[2,4,6,8,10,12,14,16,18,20,22,24,-1,26,28,-1,-1,30,32,-1,-1,-1,-1,34,-1,36,-1,38,40,-1,-1,-1,-1,-1,-1,-1,-1,-1,-1,-1,-1],"split_conditions":[3E0,8.352429E3,4E0,7.626E3,2.0050791E3,8.435E3,1.7774274E3,8.29E3,8.085E3,8.9920544E2,3.31E2,1.01E2,-1.07383804E2,8.828E3,9.255E3,4.23563E1,1.1102442E1,7.2E1,2.28E2,2.9231348E1,7.348354E1,3.3399845E1,-8.00275E0,8.044E3,-2.629883E-1,7.6754287E3,3.2010677E1,3.57E2,6E0,1.1570235E1,-5.2541156E0,2.0020672E1,7.490213E0,-2.0099041E1,-6.682375E1,-2.1275286E-1,-3.1902647E1,1.6482021E1,7.082349E1,-2.8849783E1,3.7346798E1],"split_indices":[0,6,0,6,7,5,7,4,4,7,3,3,0,5,5,0,0,3,3,0,0,0,0,5,0,6,0,3,0,0,0,0,0,0,0,0,0,0,0,0,0],"split_type":[0,0,0,0,0,0,0,0,0,0,0,0,0,0,0,0,0,0,0,0,0,0,0,0,0,0,0,0,0,0,0,0,0,0,0,0,0,0,0,0,0],"sum_hessian":[1.48E2,4.7E1,1.01E2,3.5E1,1.2E1,1.4E1,8.7E1,4E0,3.1E1,6E0,6E0,4E0,1E1,2.9E1,5.8E1,3E0,1E0,1.2E1,1.9E1,3E0,3E0,4E0,2E0,3E0,1E0,2.7E1,2E0,4.3E1,1.5E1,4E0,8E0,1.1E1,8E0,2E0,1E0,1.3E1,1.4E1,4.1E1,2E0,1.1E1,4E0],"tree_param":{"num_deleted":"0","num_feature":"8","num_nodes":"41","size_leaf_vector":"1"}},{"base_weights":[6.874466E0,4.2553726E2,-1.9021072E2,2.6208313E2,8.037771E2,-1.7555151E3,7.8764015E1,2.8924026E2,-1.6531494E1,7.0125694E1,4.24031E2,-1.942907E1,-9.679609E1,6.5025256E2,-2.0026972E1,1.25440674E2,3.6212524E2,1.08185974E2,5.624704E1,5.409839E0,6.864075E2,-5.1452175E1,5.842158E1,1.3823527E1,-1.0966797E0,2.0923008E1,1.1399881E1,2.5997766E1,-1.2143335E1,4.7291943E1,2.1923096E1,7.776285E-1,-4.9631454E1],"categories":[],"categories_nodes":[],"categories_segments":[],"categories_sizes":[],"default_left":[0,0,0,0,0,0,0,0,0,0,0,0,0,0,0,0,0,0,0,0,0,0,0,0,0,0,0,0,0,0,0,0,0],"id":12,"left_children":[1,3,5,7,9,11,13,15,-1,-1,17,-1,-1,19,21,23,25,27,-1,-1,29,31,-1,-1,-1,-1,-1,-1,-1,-1,-1,-1,-1],"loss_changes":[1.2375265E7,2.756938E6,4.308306E7,6.5900525E5,2.588442E6,2.946796E6,4.981319E6,3.604845E5,0E0,0E0,2.0920858E6,0E0,0E0,1.805065E5,2.8985325E6,2.7315894E5,7.838175E4,1.2827016E6,0E0,0E0,3.571845E5,4.745187E6,0E0,0E0,0E0,0E0,0E0,0E0,0E0,0E0,0E0,0E0,0E0],"parents":[2147483647,0,0,1,1,2,2,3,3,4,4,5,5,6,6,7,7,10,10,13,13,14,14,15,15,16,16,17,17,20,20,21,21],"right_children":[2,4,6,8,10,12,14,16,-1,-1,18,-1,-1,20,22,24,26,28,-1,-1,30,32,-1,-1,-1,-1,-1,-1,-1,-1,-1,-1,-1],"split_conditions":[3E0,2.89E2,4E0,2.85E2,3.12E2,8.044E3,3.73E3,8.085E3,-1.6531494E1,7.0125694E1,3.62E2,-1.942907E1,-9.679609E1,1.6385249E3,1.0257E4,7.7E1,2.28E2,8.477E3,5.624704E1,5.409839E0,4E0,9.005857E3,5.842158E1,1.3823527E1,-1.0966797E0,2.0923008E1,1.1399881E1,2.5997766E1,-1.2143335E1,4.7291943E1,2.1923096E1,7.776285E-1,-4.9631454E1],"split_indices":[0,3,0,3,3,5,4,4,0,0,3,0,0,7,6,3,3,5,0,0,1,6,0,0,0,0,0,0,0,0,0,0,0],"split_type":[0,0,0,0,0,0,0,0,0,0,0,0,0,0,0,0,0,0,0,0,0,0,0,0,0,0,0,0,0,0,0,0,0],"sum_hessian":[1.48E2,4.7E1,1.01E2,3.4E1,1.3E1,1.4E1,8.7E1,3.3E1,1E0,4E0,9E0,2E0,1.2E1,1.2E1,7.5E1,1.1E1,2.2E1,7E0,2E0,1E0,1.1E1,7.4E1,1E0,5E0,6E0,1.4E1,8E0,3E0,4E0,4E0,7E0,7E1,4E0],"tree_param":{"num_deleted":"0","num_feature":"8","num_nodes":"33","size_leaf_vector":"1"}},{"base_weights":[7.44836E0,4.0777606E2,-1.8101416E2,2.4979398E2,7.736044E2,-1.6754878E3,7.5782646E1,2.7610345E2,-1.6118214E1,6.7320656E1,4.098396E2,-7.0993536E2,-1.9620582E3,-2.4505081E2,2.3763385E2,1.2022933E2,3.454246E2,1.04508484E2,5.437214E1,-9.090541E2,2.1634889E0,-2.8829102E1,-1.02147385E2,-3.2880673E2,3.091774E1,3.8632236E2,-1.8611166E2,1.3247559E1,-1.0496792E0,1.9946608E1,1.0893241E1,2.502284E1,-1.1657593E1,-1.878143E1,-6.2733265E1,-2.5551757E-1,-3.0450148E1,1.534759E1,6.84368E1,-2.7093023E1,3.524539E1],"categories":[],"categories_nodes":[],"categories_segments":[],"categories_sizes":[],"default_left":[0,0,0,0,0,0,0,0,0,0,0,0,0,0,0,0,0,0,0,0,0,0,0,0,0,0,0,0,0,0,0,0,0,0,0,0,0,0,0,0,0],"id":13,"left_children":[1,3,5,7,9,11,13,15,-1,-1,17,19,21,23,25,27,29,31,-1,33,-1,-1,-1,35,-1,37,39,-1,-1,-1,-1,-1,-1,-1,-1,-1,-1,-1,-1,-1,-1],"loss_changes":[1.1315382E7,2.5808855E6,3.9272132E7,6.158675E5,2.3653335E6,2.757544E6,4.627833E6,3.258525E5,0E0,0E0,1.9552862E6,7.8922075E5,5.4848E4,2.3727795E6,3.789258E6,2.5081877E5,7.0071E4,1.1862508E6,0E0,2.6614325E5,0E0,0E0,0E0,2.5364455E6,0E0,3.010752E6,5.4536275E6,0E0,0E0,0E0,0E0,0E0,0E0,0E0,0E0,0E0,0E0,0E0,0E0,0E0,0E0],"parents":[2147483647,0,0,1,1,2,2,3,3,4,4,5,5,6,6,7,7,10,10,11,11,12,12,13,13,14,14,15,15,16,16,17,17,19,19,23,23,25,25,26,26],"right_children":[2,4,6,8,10,12,14,16,-1,-1,18,20,22,24,26,28,30,32,-1,34,-1,-1,-1,36,-1,38,40,-1,-1,-1,-1,-1,-1,-1,-1,-1,-1,-1,-1,-1,-1],"split_conditions":[3E0,2.89E2,4E0,2.85E2,3.12E2,8.435E3,1.7774274E3,8.085E3,-1.6118214E1,6.7320656E1,3.62E2,1.01E2,7.98E3,8.828E3,9.255E3,7.7E1,2.28E2,8.477E3,5.437214E1,8.044E3,2.1634889E0,-2.8829102E1,-1.02147385E2,7.6754287E3,3.091774E1,3.57E2,6E0,1.3247559E1,-1.0496792E0,1.9946608E1,1.0893241E1,2.502284E1,-1.1657593E1,-1.878143E1,-6.2733265E1,-2.5551757E-1,-3.0450148E1,1.534759E1,6.84368E1,-2.7093023E1,3.524539E1],"split_indices":[0,3,0,3,3,5,7,4,0,0,3,3,4,5,5,3,3,5,0,5,0,0,0,6,0,3,0,0,0,0,0,0,0,0,0,0,0,0,0,0,0],"split_type":[0,0,0,0,0,0,0,0,0,0,0,0,0,0,0,0,0,0,0,0,0,0,0,0,0,0,0,0,0,0,0,0,0,0,0,0,0,0,0,0,0],"sum_hessian":[1.48E2,4.7E1,1.01E2,3.4E1,1.3E1,1.4E1,8.7E1,3.3E1,1E0,4E0,9E0,4E0,1E1,2.9E1,5.8E1,1.1E1,2.2E1,7E0,2E0,3E0,1E0,1E0,9E0,2.7E1,2E0,4.3E1,1.5E1,5E0,6E0,1.4E1,8E0,3E0,4E0,2E0,1E0,1.3E1,1.4E1,4.1E1,2E0,1.1E1,4E0],"tree_param":{"num_deleted":"0","num_feature":"8","num_nodes":"41","size_leaf_vector":"1"}},{"base_weights":[7.3699436E0,3.907619E2,-1.7312206E2,2.4423175E2,7.664791E2,-1.6057352E3,7.3040665E1,6.8963477E2,1.6700528E2,1.0608612E3,3.626001E2,-6.903089E2,-9.379311E1,6.2030756E2,-2.1531836E1,1.5218928E1,4.2250637E1,2.0155804E2,-2.3419075E2,2.6580994E1,6.624436E1,5.9095154E2,-6.942619E0,-8.839801E2,2.1093996E0,7.4897314E2,3.453688E2,-5.172821E1,5.6079906E1,-8.898926E-1,1.2307056E1,-1.884397E1,1.2796631E0,3.257854E1,8.711865E0,-1.8155388E1,-6.116493E1,1.4736621E1,4.8128555E1,8.79281E0,2.2813135E1,5.469235E-1,-4.656247E1],"categories":[],"categories_nodes":[],"categories_segments":[],"categories_sizes":[],"default_left":[0,0,0,0,0,0,0,0,0,0,0,0,0,0,0,0,0,0,0,0,0,0,0,0,0,0,0,0,0,0,0,0,0,0,0,0,0,0,0,0,0,0,0],"id":14,"left_children":[1,3,5,7,9,11,13,15,17,19,21,23,-1,25,27,-1,-1,29,31,-1,-1,33,-1,35,-1,37,39,41,-1,-1,-1,-1,-1,-1,-1,-1,-1,-1,-1,-1,-1,-1,-1],"loss_changes":[1.0378328E7,2.455388E6,3.608819E7,1.123116E6,1.1609635E6,2.4143E6,4.5679195E6,4.209775E4,4.908008E5,2.73798E5,8.8360694E5,7.4661125E5,0E0,2.01205E5,2.6814152E6,0E0,0E0,2.9776775E5,1.20850266E5,0E0,0E0,1.27765E4,0E0,2.6277725E5,0E0,4.924985E5,3.2550812E4,4.1439365E6,0E0,0E0,0E0,0E0,0E0,0E0,0E0,0E0,0E0,0E0,0E0,0E0,0E0,0E0,0E0],"parents":[2147483647,0,0,1,1,2,2,3,3,4,4,5,5,6,6,7,7,8,8,9,9,10,10,11,11,13,13,14,14,17,17,18,18,21,21,23,23,25,25,26,26,27,27],"right_children":[2,4,6,8,10,12,14,16,18,20,22,24,-1,26,28,-1,-1,30,32,-1,-1,34,-1,36,-1,38,40,42,-1,-1,-1,-1,-1,-1,-1,-1,-1,-1,-1,-1,-1,-1,-1],"split_conditions":[3E0,8.352429E3,4E0,7.626E3,2.0050791E3,8.435E3,3.73E3,1E0,1.1E1,8.9920544E2,3.31E2,1.01E2,-9.379311E1,2.024E3,1.0257E4,1.5218928E1,4.2250637E1,1.1255469E3,1E0,2.6580994E1,6.624436E1,3.12E2,-6.942619E0,8.044E3,2.1093996E0,1.459E3,7.12E3,9.005857E3,5.6079906E1,-8.898926E-1,1.2307056E1,-1.884397E1,1.2796631E0,3.257854E1,8.711865E0,-1.8155388E1,-6.116493E1,1.4736621E1,4.8128555E1,8.79281E0,2.2813135E1,5.469235E-1,-4.656247E1],"split_indices":[0,6,0,6,7,5,4,0,2,7,3,3,0,4,6,0,0,7,0,0,0,3,0,5,0,4,6,6,0,0,0,0,0,0,0,0,0,0,0,0,0,0,0],"split_type":[0,0,0,0,0,0,0,0,0,0,0,0,0,0,0,0,0,0,0,0,0,0,0,0,0,0,0,0,0,0,0,0,0,0,0,0,0,0,0,0,0,0,0],"sum_hessian":[1.48E2,4.7E1,1.01E2,3.5E1,1.2E1,1.4E1,8.7E1,4E0,3.1E1,6E0,6E0,4E0,1E1,1.2E1,7.5E1,2E0,2E0,2.9E1,2E0,3E0,3E0,4E0,2E0,3E0,1E0,7E0,5E0,7.4E1,1E0,5E0,2.4E1,1E0,1E0,3E0,1E0,2E0,1E0,3E0,4E0,3E0,2E0,7E1,4E0],"tree_param":{"num_deleted":"0","num_feature":"8","num_nodes":"43","size_leaf_vector":"1"}},{"base_weights":[7.753372E0,3.749427E2,-1.6511761E2,2.2541551E2,7.2197894E2,-1.5368489E3,7.057655E1,2.5089587E2,-1.6022924E1,6.3094044E1,3.7983014E2,-1.7550213E1,-8.461431E1,5.96559E2,-2.0322773E1,3.598229E2,1.566558E2,9.7150696E1,5.0351597E1,3.8176026E0,6.3354694E2,-4.9755295E1,5.4677906E1,2.3880126E0,2.1692928E1,1.2297161E0,1.5766581E1,2.3311071E1,-1.0876802E1,5.8351635E1,2.394772E1,1.1202558E0,-3.7697144E1],"categories":[],"categories_nodes":[],"categories_segments":[],"categories_sizes":[],"default_left":[0,0,0,0,0,0,0,0,0,0,0,0,0,0,0,0,0,0,0,0,0,0,0,0,0,0,0,0,0,0,0,0,0],"id":15,"left_children":[1,3,5,7,9,11,13,15,-1,-1,17,-1,-1,19,21,23,25,27,-1,-1,29,31,-1,-1,-1,-1,-1,-1,-1,-1,-1,-1,-1],"loss_changes":[9.519889E6,2.3280395E6,3.3085986E7,5.672191E5,2.106875E6,2.170868E6,4.2195315E6,2.926515E5,0E0,0E0,1.6751365E6,0E0,0E0,2.017655E5,2.5460188E6,3.2583525E5,4.113439E5,1.0305532E6,0E0,0E0,4.3072E5,3.8279768E6,0E0,0E0,0E0,0E0,0E0,0E0,0E0,0E0,0E0,0E0,0E0],"parents":[2147483647,0,0,1,1,2,2,3,3,4,4,5,5,6,6,7,7,10,10,13,13,14,14,15,15,16,16,17,17,20,20,21,21],"right_children":[2,4,6,8,10,12,14,16,-1,-1,18,-1,-1,20,22,24,26,28,-1,-1,30,32,-1,-1,-1,-1,-1,-1,-1,-1,-1,-1,-1],"split_conditions":[3E0,2.89E2,4E0,2.85E2,3.12E2,8.044E3,3.73E3,7.7535713E3,-1.6022924E1,6.3094044E1,3.62E2,-1.7550213E1,-8.461431E1,1.8E1,1.0257E4,1.1255469E3,8.891E3,8.477E3,5.0351597E1,3.8176026E0,2E0,1.006E4,5.4677906E1,2.3880126E0,2.1692928E1,1.2297161E0,1.5766581E1,2.3311071E1,-1.0876802E1,5.8351635E1,2.394772E1,1.1202558E0,-3.7697144E1],"split_indices":[0,3,0,3,3,5,4,6,0,0,3,0,0,3,6,7,4,5,0,0,1,5,0,0,0,0,0,0,0,0,0,0,0],"split_type":[0,0,0,0,0,0,0,0,0,0,0,0,0,0,0,0,0,0,0,0,0,0,0,0,0,0,0,0,0,0,0,0,0],"sum_hessian":[1.48E2,4.7E1,1.01E2,3.4E1,1.3E1,1.4E1,8.7E1,3.3E1,1E0,4E0,9E0,2E0,1.2E1,1.2E1,7.5E1,1.4E1,1.9E1,7E0,2E0,1E0,1.1E1,7.4E1,1E0,3E0,1.1E1,1.1E1,8E0,3E0,4E0,1E0,1E1,6.8E1,6E0],"tree_param":{"num_deleted":"0","num_feature":"8","num_nodes":"33","size_leaf_vector":"1"}},{"base_weights":[8.392555E0,3.5933997E2,-1.5684145E2,2.2159717E2,7.131401E2,-1.4668174E3,6.823219E1,6.410121E2,1.4913867E2,9.887666E2,3.3563638E2,-6.303698E2,-1.7136738E3,-2.3543837E2,2.2148448E2,1.3988525E1,3.942915E1,1.8118971E2,-2.2108464E2,2.4804335E1,6.1712746E1,5.460746E2,-6.348641E0,-8.296825E2,4.1720214E0,-2.3648193E1,-8.952242E1,-3.161802E2,2.9831577E1,3.5815424E2,-1.6820013E2,-6.85708E0,1.0441279E1,-1.8100952E1,1.5196046E0,1.2237207E1,3.326901E1,-8.81897E0,-4.9432854E1,-4.3202254E-1,-2.9106932E1,1.4039031E1,6.610002E1,-2.4829176E1,3.2677998E1],"categories":[],"categories_nodes":[],"categories_segments":[],"categories_sizes":[],"default_left":[0,0,0,0,0,0,0,0,0,0,0,0,0,0,0,0,0,0,0,0,0,0,0,0,0,0,0,0,0,0,0,0,0,0,0,0,0,0,0,0,0,0,0,0,0],"id":16,"left_children":[1,3,5,7,9,11,13,15,17,19,21,23,25,27,29,-1,-1,31,33,-1,-1,35,-1,37,-1,-1,-1,39,-1,41,43,-1,-1,-1,-1,-1,-1,-1,-1,-1,-1,-1,-1,-1,-1],"loss_changes":[8.696638E6,2.1811745E6,3.0173874E7,9.984465E5,1.0207845E6,2.016988E6,4.147508E6,4.5921375E4,4.1977162E5,2.343325E5,7.507912E5,7.805861E5,2.00988E5,2.2041285E6,3.2024698E6,0E0,0E0,2.925595E5,1.1732769E5,0E0,0E0,1.690425E4,0E0,2.410555E5,0E0,0E0,0E0,2.2851678E6,0E0,2.910164E6,4.6421845E6,0E0,0E0,0E0,0E0,0E0,0E0,0E0,0E0,0E0,0E0,0E0,0E0,0E0,0E0],"parents":[2147483647,0,0,1,1,2,2,3,3,4,4,5,5,6,6,7,7,8,8,9,9,10,10,11,11,12,12,13,13,14,14,17,17,18,18,21,21,23,23,27,27,29,29,30,30],"right_children":[2,4,6,8,10,12,14,16,18,20,22,24,26,28,30,-1,-1,32,34,-1,-1,36,-1,38,-1,-1,-1,40,-1,42,44,-1,-1,-1,-1,-1,-1,-1,-1,-1,-1,-1,-1,-1,-1],"split_conditions":[3E0,8.352429E3,4E0,7.626E3,2.0050791E3,8.435E3,1.7774274E3,1E0,1.1E1,8.9920544E2,3.31E2,1.01E2,7.98E3,8.828E3,9.255E3,1.3988525E1,3.942915E1,7.303E3,1E0,2.4804335E1,6.1712746E1,3.6124658E3,-6.348641E0,3E0,4.1720214E0,-2.3648193E1,-8.952242E1,7.6754287E3,2.9831577E1,3.57E2,6E0,-6.85708E0,1.0441279E1,-1.8100952E1,1.5196046E0,1.2237207E1,3.326901E1,-8.81897E0,-4.9432854E1,-4.3202254E-1,-2.9106932E1,1.4039031E1,6.610002E1,-2.4829176E1,3.2677998E1],"split_indices":[0,6,0,6,7,5,7,0,2,7,3,3,4,5,5,0,0,5,0,0,0,7,0,2,0,0,0,6,0,3,0,0,0,0,0,0,0,0,0,0,0,0,0,0,0],"split_type":[0,0,0,0,0,0,0,0,0,0,0,0,0,0,0,0,0,0,0,0,0,0,0,0,0,0,0,0,0,0,0,0,0,0,0,0,0,0,0,0,0,0,0,0,0],"sum_hessian":[1.48E2,4.7E1,1.01E2,3.5E1,1.2E1,1.4E1,8.7E1,4E0,3.1E1,6E0,6E0,4E0,1E1,2.9E1,5.8E1,2E0,2E0,2.9E1,2E0,3E0,3E0,4E0,2E0,3E0,1E0,1E0,9E0,2.7E1,2E0,4.3E1,1.5E1,2E0,2.7E1,1E0,1E0,2E0,2E0,1E0,2E0,1.3E1,1.4E1,4.1E1,2E0,1.1E1,4E0],"tree_param":{"num_deleted":"0","num_feature":"8","num_nodes":"45","size_leaf_vector":"1"}},{"base_weights":[8.557631E0,3.4483325E2,-1.4977362E2,2.0356116E2,6.733825E2,-1.4046266E3,6.582374E1,2.282346E2,-1.5883399E1,5.9121777E1,3.5151776E2,-1.5994344E1,-7.7345146E1,-4.4130455E1,4.6745374E2,3.3243945E2,1.3866924E2,8.977637E1,4.6616116E1,2.7275105E1,-8.1033563E2,2.1653342E2,9.750256E2,1.9069214E0,2.0141827E1,7.668783E-1,1.4385188E1,2.1663807E1,-1.0148936E1,-4.8631954E0,2.9271387E1,-7.073303E0,-4.5790813E1,1.9015038E1,-4.7811047E1,4.6629558E0,6.96297E1],"categories":[],"categories_nodes":[],"categories_segments":[],"categories_sizes":[],"default_left":[0,0,0,0,0,0,0,0,0,0,0,0,0,0,0,0,0,0,0,0,0,0,0,0,0,0,0,0,0,0,0,0,0,0,0,0,0],"id":17,"left_children":[1,3,5,7,9,11,13,15,-1,-1,17,-1,-1,19,21,23,25,27,-1,29,31,33,35,-1,-1,-1,-1,-1,-1,-1,-1,-1,-1,-1,-1,-1,-1],"loss_changes":[7.984845E6,2.090838E6,2.7687842E7,5.2262088E5,1.8782E6,1.820158E6,3.9067888E6,2.7122788E5,0E0,0E0,1.4365052E6,0E0,0E0,3.8518935E6,2.2087155E6,2.9540525E5,3.632009E5,8.9243625E5,0E0,4.5752065E6,2.9376025E5,3.0524755E6,2.0793155E6,0E0,0E0,0E0,0E0,0E0,0E0,0E0,0E0,0E0,0E0,0E0,0E0,0E0,0E0],"parents":[2147483647,0,0,1,1,2,2,3,3,4,4,5,5,6,6,7,7,10,10,13,13,14,14,15,15,16,16,17,17,19,19,20,20,21,21,22,22],"right_children":[2,4,6,8,10,12,14,16,-1,-1,18,-1,-1,20,22,24,26,28,-1,30,32,34,36,-1,-1,-1,-1,-1,-1,-1,-1,-1,-1,-1,-1,-1,-1],"split_conditions":[3E0,2.89E2,4E0,2.85E2,3.12E2,8.044E3,3.4848313E3,7.7535713E3,-1.5883399E1,5.9121777E1,3.62E2,-1.5994344E1,-7.7345146E1,1.006E4,6E0,1.1255469E3,8.891E3,8.477E3,4.6616116E1,8.977E3,8.0732856E3,8.891571E3,8.558E3,1.9069214E0,2.0141827E1,7.668783E-1,1.4385188E1,2.1663807E1,-1.0148936E1,-4.8631954E0,2.9271387E1,-7.073303E0,-4.5790813E1,1.9015038E1,-4.7811047E1,4.6629558E0,6.96297E1],"split_indices":[0,3,0,3,3,5,7,6,0,0,3,0,0,5,0,7,4,5,0,5,6,6,6,0,0,0,0,0,0,0,0,0,0,0,0,0,0],"split_type":[0,0,0,0,0,0,0,0,0,0,0,0,0,0,0,0,0,0,0,0,0,0,0,0,0,0,0,0,0,0,0,0,0,0,0,0,0],"sum_hessian":[1.48E2,4.7E1,1.01E2,3.4E1,1.3E1,1.4E1,8.7E1,3.3E1,1E0,4E0,9E0,2E0,1.2E1,6.9E1,1.8E1,1.4E1,1.9E1,7E0,2E0,6.4E1,5E0,1.3E1,5E0,3E0,1.1E1,1.1E1,8E0,3E0,4E0,5.3E1,1.1E1,1E0,4E0,1.2E1,1E0,2E0,3E0],"tree_param":{"num_deleted":"0","num_feature":"8","num_nodes":"37","size_leaf_vector":"1"}},{"base_weights":[8.547773E0,3.304786E2,-1.4303288E2,1.9399242E2,6.4808844E2,-1.3406178E3,6.2726284E1,2.1791725E2,-1.5486304E1,5.6756897E1,3.3975488E2,-5.7233167E2,-1.5679645E3,5.6132227E2,-2.3385216E1,3.172875E2,1.324937E2,8.672681E1,4.506224E1,-7.754281E2,6.001355E0,-2.1123352E1,-8.201338E1,6.840006E2,3.0419742E2,-5.2016903E1,5.309978E1,1.8354005E0,1.921867E1,-5.265674E0,9.926379E0,2.0851404E1,-9.742979E0,-1.5461206E1,-5.4351E1,1.2830798E1,4.445541E1,7.103369E0,2.0948584E1,1.1255465E1,-8.564888E0],"categories":[],"categories_nodes":[],"categories_segments":[],"categories_sizes":[],"default_left":[0,0,0,0,0,0,0,0,0,0,0,0,0,0,0,0,0,0,0,0,0,0,0,0,0,0,0,0,0,0,0,0,0,0,0,0,0,0,0,0,0],"id":18,"left_children":[1,3,5,7,9,11,13,15,-1,-1,17,19,21,23,25,27,29,31,-1,33,-1,-1,-1,35,37,39,-1,-1,-1,-1,-1,-1,-1,-1,-1,-1,-1,-1,-1,-1,-1],"loss_changes":[7.318244E6,1.955045E6,2.521833E7,4.8929312E5,1.716763E6,1.722614E6,3.791393E6,2.465725E5,0E0,0E0,1.342565E6,7.961505E5,2.1809E5,2.0199625E5,2.417039E6,2.6823412E5,3.3497425E5,8.253286E5,0E0,2.4492875E5,0E0,0E0,0E0,4.7311925E5,5.2127938E4,2.5177498E6,0E0,0E0,0E0,0E0,0E0,0E0,0E0,0E0,0E0,0E0,0E0,0E0,0E0,0E0,0E0],"parents":[2147483647,0,0,1,1,2,2,3,3,4,4,5,5,6,6,7,7,10,10,11,11,12,12,13,13,14,14,15,15,16,16,17,17,19,19,23,23,24,24,25,25],"right_children":[2,4,6,8,10,12,14,16,-1,-1,18,20,22,24,26,28,30,32,-1,34,-1,-1,-1,36,38,40,-1,-1,-1,-1,-1,-1,-1,-1,-1,-1,-1,-1,-1,-1,-1],"split_conditions":[3E0,2.89E2,4E0,2.85E2,3.12E2,8.435E3,3.73E3,7.7535713E3,-1.5486304E1,5.6756897E1,3.62E2,1.01E2,7.98E3,2.024E3,3.64E2,1.1255469E3,8.21E3,8.477E3,4.506224E1,8.044E3,6.001355E0,-2.1123352E1,-8.201338E1,1.459E3,7.12E3,7.531E3,5.309978E1,1.8354005E0,1.921867E1,-5.265674E0,9.926379E0,2.0851404E1,-9.742979E0,-1.5461206E1,-5.4351E1,1.2830798E1,4.445541E1,7.103369E0,2.0948584E1,1.1255465E1,-8.564888E0],"split_indices":[0,3,0,3,3,5,4,6,0,0,3,3,4,4,3,7,5,5,0,5,0,0,0,4,6,5,0,0,0,0,0,0,0,0,0,0,0,0,0,0,0],"split_type":[0,0,0,0,0,0,0,0,0,0,0,0,0,0,0,0,0,0,0,0,0,0,0,0,0,0,0,0,0,0,0,0,0,0,0,0,0,0,0,0,0],"sum_hessian":[1.48E2,4.7E1,1.01E2,3.4E1,1.3E1,1.4E1,8.7E1,3.3E1,1E0,4E0,9E0,4E0,1E1,1.2E1,7.5E1,1.4E1,1.9E1,7E0,2E0,3E0,1E0,1E0,9E0,7E0,5E0,7.4E1,1E0,3E0,1.1E1,4E0,1.5E1,3E0,4E0,2E0,1E0,3E0,4E0,3E0,2E0,2.2E1,5.2E1],"tree_param":{"num_deleted":"0","num_feature":"8","num_nodes":"41","size_leaf_vector":"1"}},{"base_weights":[8.773497E0,3.165203E2,-1.3613455E2,1.8988426E2,6.42857E2,-1.2847169E3,6.1193516E1,5.7285333E2,1.24111465E2,8.933192E2,3.005581E2,-5.564772E2,-1.4989425E3,5.398207E2,-2.1482101E1,1.2210238E1,3.552754E1,-1.6855509E1,1.9875395E2,2.2507374E1,5.565806E1,4.8646875E2,-1.09479004E2,-7.541096E2,5.8513184E0,-2.0595264E1,-7.8322784E1,2.7561524E0,5.756186E2,-1.2350951E2,2.7037012E2,3.8780003E0,-1.1253827E1,1.4105469E1,2.8133953E0,2.713307E1,6.542456E0,-1.3900025E0,-6.820923E0,-1.4945826E1,-5.2992226E1,5.4955128E1,2.1405537E1,5.058128E0,-1.5760373E1,-1.3708735E1,4.211662E1],"categories":[],"categories_nodes":[],"categories_segments":[],"categories_sizes":[],"default_left":[0,0,0,0,0,0,0,0,0,0,0,0,0,0,0,0,0,0,0,0,0,0,0,0,0,0,0,0,0,0,0,0,0,0,0,0,0,0,0,0,0,0,0,0,0,0,0],"id":19,"left_children":[1,3,5,7,9,11,13,15,17,19,21,23,25,27,29,-1,-1,31,33,-1,-1,35,37,39,-1,-1,-1,-1,41,43,45,-1,-1,-1,-1,-1,-1,-1,-1,-1,-1,-1,-1,-1,-1,-1,-1],"loss_changes":[6.687743E6,1.861579E6,2.3196664E7,8.3570425E5,8.460335E5,1.505984E6,3.4938265E6,5.2750375E4,3.4005812E5,1.809075E5,5.8687006E5,7.537814E5,1.62054E5,1.9383525E5,2.2964395E6,0E0,0E0,2.5336848E5,2.3354294E5,0E0,0E0,2.890925E4,2.8087188E3,2.3986875E5,0E0,0E0,0E0,0E0,4.56078E5,2.48683E6,6.4601285E6,0E0,0E0,0E0,0E0,0E0,0E0,0E0,0E0,0E0,0E0,0E0,0E0,0E0,0E0,0E0,0E0],"parents":[2147483647,0,0,1,1,2,2,3,3,4,4,5,5,6,6,7,7,8,8,9,9,10,10,11,11,12,12,13,13,14,14,17,17,18,18,21,21,22,22,23,23,28,28,29,29,30,30],"right_children":[2,4,6,8,10,12,14,16,18,20,22,24,26,28,30,-1,-1,32,34,-1,-1,36,38,40,-1,-1,-1,-1,42,44,46,-1,-1,-1,-1,-1,-1,-1,-1,-1,-1,-1,-1,-1,-1,-1,-1],"split_conditions":[3E0,8.352429E3,4E0,7.626E3,2.0050791E3,8.435E3,3.73E3,1E0,8.02E3,8.9920544E2,3.31E2,1.01E2,7.98E3,1.8E1,8.429143E3,1.2210238E1,3.552754E1,7.808E3,2.28E2,2.2507374E1,5.565806E1,3.12E2,1.2E1,8.044E3,5.8513184E0,-2.0595264E1,-7.8322784E1,2.7561524E0,2E0,7.6754287E3,6E0,3.8780003E0,-1.1253827E1,1.4105469E1,2.8133953E0,2.713307E1,6.542456E0,-1.3900025E0,-6.820923E0,-1.4945826E1,-5.2992226E1,5.4955128E1,2.1405537E1,5.058128E0,-1.5760373E1,-1.3708735E1,4.211662E1],"split_indices":[0,6,0,6,7,5,4,0,4,7,3,3,4,3,6,0,0,4,3,0,0,3,2,5,0,0,0,0,1,6,0,0,0,0,0,0,0,0,0,0,0,0,0,0,0,0,0],"split_type":[0,0,0,0,0,0,0,0,0,0,0,0,0,0,0,0,0,0,0,0,0,0,0,0,0,0,0,0,0,0,0,0,0,0,0,0,0,0,0,0,0,0,0,0,0,0,0],"sum_hessian":[1.48E2,4.7E1,1.01E2,3.5E1,1.2E1,1.4E1,8.7E1,4E0,3.1E1,6E0,6E0,4E0,1E1,1.2E1,7.5E1,2E0,2E0,1.1E1,2E1,3E0,3E0,4E0,2E0,3E0,1E0,1E0,9E0,1E0,1.1E1,5.6E1,1.9E1,8E0,3E0,1.2E1,8E0,3E0,1E0,1E0,1E0,2E0,1E0,1E0,1E1,2.6E1,3E1,1E1,9E0],"tree_param":{"num_deleted":"0","num_feature":"8","num_nodes":"47","size_leaf_vector":"1"}},{"base_weights":[8.984012E0,3.040466E2,-1.2995706E2,1.7471487E2,6.056583E2,-1.2312147E3,5.9234104E1,1.977E2,-1.5169482E1,5.3275307E1,3.1516864E2,-1.4447632E1,-1.3539509E3,-2.1496738E2,1.9765462E2,2.9347202E2,1.15985985E2,8.1174194E1,4.1704884E1,-2.0080383E1,-6.999228E1,-2.8762875E2,2.6743067E1,3.222614E2,-1.573675E2,1.4933227E0,1.7844227E1,2.5369465E-1,1.2549072E1,1.9425001E1,-9.046065E0,7.086676E0,-2.1874937E1,1.2570304E1,6.034079E1,-2.298387E1,2.9982489E1],"categories":[],"categories_nodes":[],"categories_segments":[],"categories_sizes":[],"default_left":[0,0,0,0,0,0,0,0,0,0,0,0,0,0,0,0,0,0,0,0,0,0,0,0,0,0,0,0,0,0,0,0,0,0,0,0,0],"id":20,"left_children":[1,3,5,7,9,11,13,15,-1,-1,17,-1,19,21,23,25,27,29,-1,-1,-1,31,-1,33,35,-1,-1,-1,-1,-1,-1,-1,-1,-1,-1,-1,-1],"loss_changes":[6.147964E6,1.766565E6,2.1324446E7,4.4460525E5,1.53432E6,1.343518E6,3.3825392E6,2.3204262E5,0E0,0E0,1.1465578E6,0E0,6.01E3,1.7883491E6,2.6607655E6,2.4007925E5,2.9817916E5,7.1467756E5,0E0,0E0,0E0,1.863767E6,0E0,2.4543165E6,3.9373065E6,0E0,0E0,0E0,0E0,0E0,0E0,0E0,0E0,0E0,0E0,0E0,0E0],"parents":[2147483647,0,0,1,1,2,2,3,3,4,4,5,5,6,6,7,7,10,10,12,12,13,13,14,14,15,15,16,16,17,17,21,21,23,23,24,24],"right_children":[2,4,6,8,10,12,14,16,-1,-1,18,-1,20,22,24,26,28,30,-1,-1,-1,32,-1,34,36,-1,-1,-1,-1,-1,-1,-1,-1,-1,-1,-1,-1],"split_conditions":[3E0,2.89E2,4E0,2.85E2,3.12E2,8.044E3,1.7774274E3,7.7535713E3,-1.5169482E1,5.3275307E1,3.62E2,-1.4447632E1,7.98E3,8.828E3,9.255E3,1.1255469E3,8.891E3,8.477E3,4.1704884E1,-2.0080383E1,-6.999228E1,7.592857E3,2.6743067E1,3.57E2,6E0,1.4933227E0,1.7844227E1,2.5369465E-1,1.2549072E1,1.9425001E1,-9.046065E0,7.086676E0,-2.1874937E1,1.2570304E1,6.034079E1,-2.298387E1,2.9982489E1],"split_indices":[0,3,0,3,3,5,7,6,0,0,3,0,4,5,5,7,4,5,0,0,0,6,0,3,0,0,0,0,0,0,0,0,0,0,0,0,0],"split_type":[0,0,0,0,0,0,0,0,0,0,0,0,0,0,0,0,0,0,0,0,0,0,0,0,0,0,0,0,0,0,0,0,0,0,0,0,0],"sum_hessian":[1.48E2,4.7E1,1.01E2,3.4E1,1.3E1,1.4E1,8.7E1,3.3E1,1E0,4E0,9E0,2E0,1.2E1,2.9E1,5.8E1,1.4E1,1.9E1,7E0,2E0,1E0,1.1E1,2.7E1,2E0,4.3E1,1.5E1,3E0,1.1E1,1.1E1,8E0,3E0,4E0,7E0,2E1,4.1E1,2E0,1.1E1,4E0],"tree_param":{"num_deleted":"0","num_feature":"8","num_nodes":"37","size_leaf_vector":"1"}},{"base_weights":[9.270898E0,2.913929E2,-1.235833E2,1.6646417E2,5.82901E2,-1.1766221E3,5.7316296E1,1.8876045E2,-1.4790235E1,5.1144287E1,3.0461856E2,-5.0729474E2,-1.3738961E3,5.159389E2,-2.1886475E1,2.8008795E2,1.10826805E2,7.841284E1,4.0314713E1,-7.0866675E2,7.454834E0,-1.957837E1,-7.164861E1,6.387029E2,2.6626382E2,-4.8424088E1,4.9210865E1,7.06932E0,2.09203E1,-5.1712794E0,8.542701E0,1.869657E1,-8.684229E0,-1.3966041E1,-4.9917614E1,1.1519971E1,4.1880257E1,5.6314454E0,1.911779E1,-3.782705E0,4.9164917E1],"categories":[],"categories_nodes":[],"categories_segments":[],"categories_sizes":[],"default_left":[0,0,0,0,0,0,0,0,0,0,0,0,0,0,0,0,0,0,0,0,0,0,0,0,0,0,0,0,0,0,0,0,0,0,0,0,0,0,0,0,0],"id":21,"left_children":[1,3,5,7,9,11,13,15,-1,-1,17,19,21,23,25,27,29,31,-1,33,-1,-1,-1,35,37,39,-1,-1,-1,-1,-1,-1,-1,-1,-1,-1,-1,-1,-1,-1,-1],"loss_changes":[5.6206945E6,1.65102E6,1.9497858E7,4.1657688E5,1.4025705E6,1.283644E6,3.20782E6,2.1095325E5,0E0,0E0,1.0715954E6,7.665541E5,7.7248E4,2.28401E5,2.0768289E6,2.28617E5,2.7489006E5,6.609418E5,0E0,2.1864075E5,0E0,0E0,0E0,4.5671575E5,6.3950375E4,2.1814265E6,0E0,0E0,0E0,0E0,0E0,0E0,0E0,0E0,0E0,0E0,0E0,0E0,0E0,0E0,0E0],"parents":[2147483647,0,0,1,1,2,2,3,3,4,4,5,5,6,6,7,7,10,10,11,11,12,12,13,13,14,14,15,15,16,16,17,17,19,19,23,23,24,24,25,25],"right_children":[2,4,6,8,10,12,14,16,-1,-1,18,20,22,24,26,28,30,32,-1,34,-1,-1,-1,36,38,40,-1,-1,-1,-1,-1,-1,-1,-1,-1,-1,-1,-1,-1,-1,-1],"split_conditions":[3E0,2.89E2,4E0,2.85E2,3.12E2,8.435E3,3.73E3,7.7535713E3,-1.4790235E1,5.1144287E1,3.62E2,1.01E2,7.98E3,2.024E3,3.64E2,7.6625713E3,8.21E3,8.477E3,4.0314713E1,8.044E3,7.454834E0,-1.957837E1,-7.164861E1,1.459E3,7.12E3,1.0257E4,4.9210865E1,7.06932E0,2.09203E1,-5.1712794E0,8.542701E0,1.869657E1,-8.684229E0,-1.3966041E1,-4.9917614E1,1.1519971E1,4.1880257E1,5.6314454E0,1.911779E1,-3.782705E0,4.9164917E1],"split_indices":[0,3,0,3,3,5,4,6,0,0,3,3,4,4,3,6,5,5,0,5,0,0,0,4,6,6,0,0,0,0,0,0,0,0,0,0,0,0,0,0,0],"split_type":[0,0,0,0,0,0,0,0,0,0,0,0,0,0,0,0,0,0,0,0,0,0,0,0,0,0,0,0,0,0,0,0,0,0,0,0,0,0,0,0,0],"sum_hessian":[1.48E2,4.7E1,1.01E2,3.4E1,1.3E1,1.4E1,8.7E1,3.3E1,1E0,4E0,9E0,4E0,1E1,1.2E1,7.5E1,1.4E1,1.9E1,7E0,2E0,3E0,1E0,1E0,9E0,7E0,5E0,7.4E1,1E0,8E0,6E0,4E0,1.5E1,3E0,4E0,2E0,1E0,3E0,4E0,3E0,2E0,7.3E1,1E0],"tree_param":{"num_deleted":"0","num_feature":"8","num_nodes":"41","size_leaf_vector":"1"}},{"base_weights":[9.767775E0,2.792824E2,-1.171584E2,1.6326944E2,5.7906586E2,-1.1276349E3,5.6413242E1,5.179266E2,1.0275209E2,8.0756335E2,2.6784467E2,-4.932159E2,-1.3134948E3,-3.9861202E1,4.0813943E2,1.0972803E1,3.2187744E1,-3.2350277E1,1.6563272E2,2.0446655E1,5.0215137E1,4.3193573E2,-9.4922035E1,-6.8920447E2,7.268457E0,-1.9088917E1,-6.842443E1,2.5110592E1,-7.370788E2,1.7801297E2,8.7707794E2,3.2136395E0,-1.5571802E1,1.2567162E1,1.8822901E0,2.4283045E1,5.425879E0,-9.119995E-1,-6.2071533E0,-1.3500513E1,-4.8669678E1,-4.5365696E0,2.7215347E1,-5.6191773E0,-4.197706E1,1.6568357E1,-4.538977E1,3.0961914E0,6.3458706E1],"categories":[],"categories_nodes":[],"categories_segments":[],"categories_sizes":[],"default_left":[0,0,0,0,0,0,0,0,0,0,0,0,0,0,0,0,0,0,0,0,0,0,0,0,0,0,0,0,0,0,0,0,0,0,0,0,0,0,0,0,0,0,0,0,0,0,0,0,0],"id":22,"left_children":[1,3,5,7,9,11,13,15,17,19,21,23,25,27,29,-1,-1,31,33,-1,-1,35,37,39,-1,-1,-1,41,43,45,47,-1,-1,-1,-1,-1,-1,-1,-1,-1,-1,-1,-1,-1,-1,-1,-1,-1,-1],"loss_changes":[5.1297815E6,1.574837E6,1.7953398E7,7.194467E5,7.081705E5,1.12086E6,2.9961462E6,4.6504375E4,2.7720856E5,1.382915E5,4.5768762E5,7.259659E5,4.1168E4,3.189472E6,1.8942568E6,0E0,0E0,3.166442E5,2.3187406E5,0E0,0E0,3.417575E4,4.4578164E3,2.1369525E5,0E0,0E0,0E0,3.9587938E6,2.8969575E5,2.6319982E6,1.8391205E6,0E0,0E0,0E0,0E0,0E0,0E0,0E0,0E0,0E0,0E0,0E0,0E0,0E0,0E0,0E0,0E0,0E0,0E0],"parents":[2147483647,0,0,1,1,2,2,3,3,4,4,5,5,6,6,7,7,8,8,9,9,10,10,11,11,12,12,13,13,14,14,17,17,18,18,21,21,22,22,23,23,27,27,28,28,29,29,30,30],"right_children":[2,4,6,8,10,12,14,16,18,20,22,24,26,28,30,-1,-1,32,34,-1,-1,36,38,40,-1,-1,-1,42,44,46,48,-1,-1,-1,-1,-1,-1,-1,-1,-1,-1,-1,-1,-1,-1,-1,-1,-1,-1],"split_conditions":[3E0,8.352429E3,4E0,7.626E3,2.0050791E3,8.435E3,3.4848313E3,1E0,7.989E3,8.9920544E2,3.31E2,1.01E2,7.98E3,1.006E4,6E0,1.0972803E1,3.2187744E1,7.808E3,2.28E2,2.0446655E1,5.0215137E1,3.12E2,1.2E1,8.044E3,7.268457E0,-1.9088917E1,-6.842443E1,8.977E3,8.0732856E3,8.891571E3,8.558E3,3.2136395E0,-1.5571802E1,1.2567162E1,1.8822901E0,2.4283045E1,5.425879E0,-9.119995E-1,-6.2071533E0,-1.3500513E1,-4.8669678E1,-4.5365696E0,2.7215347E1,-5.6191773E0,-4.197706E1,1.6568357E1,-4.538977E1,3.0961914E0,6.3458706E1],"split_indices":[0,6,0,6,7,5,7,0,4,7,3,3,4,5,0,0,0,4,3,0,0,3,2,5,0,0,0,5,6,6,6,0,0,0,0,0,0,0,0,0,0,0,0,0,0,0,0,0,0],"split_type":[0,0,0,0,0,0,0,0,0,0,0,0,0,0,0,0,0,0,0,0,0,0,0,0,0,0,0,0,0,0,0,0,0,0,0,0,0,0,0,0,0,0,0,0,0,0,0,0,0],"sum_hessian":[1.48E2,4.7E1,1.01E2,3.5E1,1.2E1,1.4E1,8.7E1,4E0,3.1E1,6E0,6E0,4E0,1E1,6.9E1,1.8E1,2E0,2E0,1E1,2.1E1,3E0,3E0,4E0,2E0,3E0,1E0,1E0,9E0,6.4E1,5E0,1.3E1,5E0,8E0,2E0,1.2E1,9E0,3E0,1E0,1E0,1E0,2E0,1E0,5.3E1,1.1E1,1E0,4E0,1.2E1,1E0,2E0,3E0],"tree_param":{"num_deleted":"0","num_feature":"8","num_nodes":"49","size_leaf_vector":"1"}},{"base_weights":[9.339022E0,2.6820383E2,-1.12571266E2,1.5012102E2,5.442534E2,-1.0807474E3,5.373799E1,1.7155696E2,-1.4467529E1,4.8012833E1,2.8182648E2,-1.3050496E1,-5.933917E1,4.8815775E2,-2.1277729E1,2.5975613E2,9.6829735E1,7.255505E1,3.729707E1,1.8006347E0,5.2283545E2,-4.7211563E1,4.8093994E1,6.3205514E0,1.970459E1,-1.3474935E-1,1.0938525E1,1.741648E1,-8.128779E0,5.1805786E1,1.9099064E1,9.831337E0,-7.60687E0],"categories":[],"categories_nodes":[],"categories_segments":[],"categories_sizes":[],"default_left":[0,0,0,0,0,0,0,0,0,0,0,0,0,0,0,0,0,0,0,0,0,0,0,0,0,0,0,0,0,0,0,0,0],"id":23,"left_children":[1,3,5,7,9,11,13,15,-1,-1,17,-1,-1,19,21,23,25,27,-1,-1,29,31,-1,-1,-1,-1,-1,-1,-1,-1,-1,-1,-1],"loss_changes":[4.732376E6,1.4829382E6,1.6481778E7,3.7935725E5,1.2577608E6,9.94058E5,2.878158E6,1.9893781E5,0E0,0E0,9.1713794E5,0E0,0E0,1.85003E5,1.9831874E6,2.188775E5,2.43312E5,5.7537425E5,0E0,0E0,4.71795E5,1.9487846E6,0E0,0E0,0E0,0E0,0E0,0E0,0E0,0E0,0E0,0E0,0E0],"parents":[2147483647,0,0,1,1,2,2,3,3,4,4,5,5,6,6,7,7,10,10,13,13,14,14,15,15,16,16,17,17,20,20,21,21],"right_children":[2,4,6,8,10,12,14,16,-1,-1,18,-1,-1,20,22,24,26,28,-1,-1,30,32,-1,-1,-1,-1,-1,-1,-1,-1,-1,-1,-1],"split_conditions":[3E0,2.89E2,4E0,2.85E2,3.12E2,8.044E3,3.73E3,7.7535713E3,-1.4467529E1,4.8012833E1,3.62E2,-1.3050496E1,-5.933917E1,1.8E1,3.64E2,7.6625713E3,8.891E3,8.477E3,3.729707E1,1.8006347E0,2E0,7.531E3,4.8093994E1,6.3205514E0,1.970459E1,-1.3474935E-1,1.0938525E1,1.741648E1,-8.128779E0,5.1805786E1,1.9099064E1,9.831337E0,-7.60687E0],"split_indices":[0,3,0,3,3,5,4,6,0,0,3,0,0,3,3,6,4,5,0,0,1,5,0,0,0,0,0,0,0,0,0,0,0],"split_type":[0,0,0,0,0,0,0,0,0,0,0,0,0,0,0,0,0,0,0,0,0,0,0,0,0,0,0,0,0,0,0,0,0],"sum_hessian":[1.48E2,4.7E1,1.01E2,3.4E1,1.3E1,1.4E1,8.7E1,3.3E1,1E0,4E0,9E0,2E0,1.2E1,1.2E1,7.5E1,1.4E1,1.9E1,7E0,2E0,1E0,1.1E1,7.4E1,1E0,8E0,6E0,1.1E1,8E0,3E0,4E0,1E0,1E1,2.2E1,5.2E1],"tree_param":{"num_deleted":"0","num_feature":"8","num_nodes":"33","size_leaf_vector":"1"}},{"base_weights":[9.996945E0,2.5723044E2,-1.0644624E2,1.483825E2,5.388686E2,-1.031536E3,5.2449123E1,4.8726776E2,9.079472E1,7.5322614E2,2.4752979E2,-4.505796E2,-1.201831E3,-2.3763988E2,1.58752E2,2.736112E1,6.1862307E0,-3.457111E1,1.493506E2,1.9107788E1,4.67995E1,3.9881952E2,-8.712972E1,-6.4892676E2,8.570228E0,-1.712821E1,-6.2675068E1,-1.27628395E2,-4.8258873E1,2.55502E2,-1.5351376E2,2.8589897E0,-1.4915008E1,1.1569254E1,1.3885376E0,8.199658E0,2.5035303E1,-6.859741E-1,-5.848755E0,-1.2615487E1,-4.5969448E1,-2.5071802E1,4.0122123E0,9.830845E0,5.5624825E1,-2.1591835E1,2.7258204E1],"categories":[],"categories_nodes":[],"categories_segments":[],"categories_sizes":[],"default_left":[0,0,0,0,0,0,0,0,0,0,0,0,0,0,0,0,0,0,0,0,0,0,0,0,0,0,0,0,0,0,0,0,0,0,0,0,0,0,0,0,0,0,0,0,0,0,0],"id":24,"left_children":[1,3,5,7,9,11,13,15,17,19,21,23,25,27,29,-1,-1,31,33,-1,-1,35,37,39,-1,-1,-1,41,-1,43,45,-1,-1,-1,-1,-1,-1,-1,-1,-1,-1,-1,-1,-1,-1,-1,-1],"loss_changes":[4.316891E6,1.3915162E6,1.5047335E7,6.5832206E5,6.25413E5,9.42489E5,2.7514075E6,4.1275625E4,2.4007225E5,1.170335E5,3.891629E5,7.2807294E5,5.8979E4,1.7977155E6,2.0029845E6,0E0,0E0,2.8322788E5,2.1299647E5,0E0,0E0,3.7515812E4,4.9680312E3,1.9710888E5,0E0,0E0,0E0,1.7497336E6,0E0,2.3044748E6,3.346751E6,0E0,0E0,0E0,0E0,0E0,0E0,0E0,0E0,0E0,0E0,0E0,0E0,0E0,0E0,0E0,0E0],"parents":[2147483647,0,0,1,1,2,2,3,3,4,4,5,5,6,6,7,7,8,8,9,9,10,10,11,11,12,12,13,13,14,14,17,17,18,18,21,21,22,22,23,23,27,27,29,29,30,30],"right_children":[2,4,6,8,10,12,14,16,18,20,22,24,26,28,30,-1,-1,32,34,-1,-1,36,38,40,-1,-1,-1,42,-1,44,46,-1,-1,-1,-1,-1,-1,-1,-1,-1,-1,-1,-1,-1,-1,-1,-1],"split_conditions":[3E0,8.352429E3,4E0,7.626E3,2.0050791E3,8.435E3,1.6171586E3,8.29E3,7.989E3,8.9920544E2,3.31E2,1.01E2,7.98E3,1.5942756E3,9.255E3,2.736112E1,6.1862307E0,7.808E3,2.28E2,1.9107788E1,4.67995E1,3.6124658E3,1.2E1,8.044E3,8.570228E0,-1.712821E1,-6.2675068E1,7.6E1,-4.8258873E1,3.57E2,6E0,2.8589897E0,-1.4915008E1,1.1569254E1,1.3885376E0,8.199658E0,2.5035303E1,-6.859741E-1,-5.848755E0,-1.2615487E1,-4.5969448E1,-2.5071802E1,4.0122123E0,9.830845E0,5.5624825E1,-2.1591835E1,2.7258204E1],"split_indices":[0,6,0,6,7,5,7,4,4,7,3,3,4,7,5,0,0,4,3,0,0,7,2,5,0,0,0,3,0,3,0,0,0,0,0,0,0,0,0,0,0,0,0,0,0,0,0],"split_type":[0,0,0,0,0,0,0,0,0,0,0,0,0,0,0,0,0,0,0,0,0,0,0,0,0,0,0,0,0,0,0,0,0,0,0,0,0,0,0,0,0,0,0,0,0,0,0],"sum_hessian":[1.48E2,4.7E1,1.01E2,3.5E1,1.2E1,1.4E1,8.7E1,4E0,3.1E1,6E0,6E0,4E0,1E1,2.3E1,6.4E1,3E0,1E0,1E1,2.1E1,3E0,3E0,4E0,2E0,3E0,1E0,1E0,9E0,2.1E1,2E0,4.9E1,1.5E1,8E0,2E0,1.2E1,9E0,2E0,2E0,1E0,1E0,2E0,1E0,7E0,1.4E1,4.7E1,2E0,1.1E1,4E0],"tree_param":{"num_deleted":"0","num_feature":"8","num_nodes":"47","size_leaf_vector":"1"}},{"base_weights":[9.490579E0,2.4701584E2,-1.0237906E2,1.3554648E2,5.0804523E2,-9.886135E2,4.9847034E1,1.5616908E2,-1.4140552E1,4.5086475E1,2.603986E2,-4.3805353E2,-1.1489941E3,4.6751953E2,-2.2252827E1,2.4031764E2,8.524922E1,6.679437E1,3.4493847E1,-6.311266E2,8.355969E0,-1.67E1,-5.9854675E1,5.847969E2,2.3322981E2,-4.700715E1,4.5858032E1,5.581619E0,1.857195E1,-5.0170116E0,6.8958926E0,1.6183203E1,-7.603013E0,-1.21949625E1,-4.4820217E1,1.00384035E1,3.875303E1,4.2416873E0,1.76674E1,-2.2736563E1,1.8936272E0],"categories":[],"categories_nodes":[],"categories_segments":[],"categories_sizes":[],"default_left":[0,0,0,0,0,0,0,0,0,0,0,0,0,0,0,0,0,0,0,0,0,0,0,0,0,0,0,0,0,0,0,0,0,0,0,0,0,0,0,0,0],"id":25,"left_children":[1,3,5,7,9,11,13,15,-1,-1,17,19,21,23,25,27,29,31,-1,33,-1,-1,-1,35,37,39,-1,-1,-1,-1,-1,-1,-1,-1,-1,-1,-1,-1,-1,-1,-1],"loss_changes":[3.9844975E6,1.3277812E6,1.3809897E7,3.4613306E5,1.1301155E6,8.21166E5,2.6604468E6,1.824185E5,0E0,0E0,7.8540825E5,6.896865E5,3.1379E4,2.208075E5,1.8104582E6,2.1163619E5,2.0933353E5,4.989534E5,0E0,1.9225875E5,0E0,0E0,0E0,4.289265E5,7.697453E4,2.612784E6,0E0,0E0,0E0,0E0,0E0,0E0,0E0,0E0,0E0,0E0,0E0,0E0,0E0,0E0,0E0],"parents":[2147483647,0,0,1,1,2,2,3,3,4,4,5,5,6,6,7,7,10,10,11,11,12,12,13,13,14,14,15,15,16,16,17,17,19,19,23,23,24,24,25,25],"right_children":[2,4,6,8,10,12,14,16,-1,-1,18,20,22,24,26,28,30,32,-1,34,-1,-1,-1,36,38,40,-1,-1,-1,-1,-1,-1,-1,-1,-1,-1,-1,-1,-1,-1,-1],"split_conditions":[3E0,2.89E2,4E0,2.85E2,3.12E2,8.435E3,3.73E3,7.7535713E3,-1.4140552E1,4.5086475E1,3.62E2,1.01E2,7.98E3,2.024E3,1.0257E4,7.6625713E3,8.21E3,8.477E3,3.4493847E1,8.044E3,8.355969E0,-1.67E1,-5.9854675E1,1.459E3,7.12E3,6.2E1,4.5858032E1,5.581619E0,1.857195E1,-5.0170116E0,6.8958926E0,1.6183203E1,-7.603013E0,-1.21949625E1,-4.4820217E1,1.00384035E1,3.875303E1,4.2416873E0,1.76674E1,-2.2736563E1,1.8936272E0],"split_indices":[0,3,0,3,3,5,4,6,0,0,3,3,4,4,6,6,5,5,0,5,0,0,0,4,6,3,0,0,0,0,0,0,0,0,0,0,0,0,0,0,0],"split_type":[0,0,0,0,0,0,0,0,0,0,0,0,0,0,0,0,0,0,0,0,0,0,0,0,0,0,0,0,0,0,0,0,0,0,0,0,0,0,0,0,0],"sum_hessian":[1.48E2,4.7E1,1.01E2,3.4E1,1.3E1,1.4E1,8.7E1,3.3E1,1E0,4E0,9E0,4E0,1E1,1.2E1,7.5E1,1.4E1,1.9E1,7E0,2E0,3E0,1E0,1E0,9E0,7E0,5E0,7.4E1,1E0,8E0,6E0,4E0,1.5E1,3E0,4E0,2E0,1E0,3E0,4E0,3E0,2E0,1.2E1,6.2E1],"tree_param":{"num_deleted":"0","num_feature":"8","num_nodes":"41","size_leaf_vector":"1"}},{"base_weights":[9.489559E0,-1.6471546E1,4.7734875E1,-7.341977E1,4.1998376E2,1.8098323E2,-2.0123946E2,6.528789E2,-5.991978E0,4.5724707E2,1.4192567E2,-9.475306E2,-4.5135254E1,6.267175E1,3.801515E2,-4.4579425E2,3.6450455E1,9.651172E0,2.845275E1,3.9738946E0,1.7409636E1,-1.1788468E1,-5.1944813E1,5.73099E-1,-2.9020187E1,2.9113607E0,2.3190584E1,-4.3630688E1,6.4811683E0],"categories":[],"categories_nodes":[],"categories_segments":[],"categories_sizes":[],"default_left":[0,0,0,0,0,0,0,0,0,0,0,0,0,0,0,0,0,0,0,0,0,0,0,0,0,0,0,0,0],"id":26,"left_children":[1,3,-1,5,7,9,11,13,15,17,19,21,23,-1,25,27,-1,-1,-1,-1,-1,-1,-1,-1,-1,-1,-1,-1,-1],"loss_changes":[3.671983E6,3.659717E6,0E0,4.2637235E6,1.6904428E6,4.0987338E5,1.0092662E7,1.325174E6,2.5877742E6,3.7870625E4,4.8756312E5,7.30518E5,2.2181668E6,0E0,2.1538375E5,1.3411085E6,0E0,0E0,0E0,0E0,0E0,0E0,0E0,0E0,0E0,0E0,0E0,0E0,0E0],"parents":[2147483647,0,0,1,1,3,3,4,4,5,5,6,6,7,7,8,8,9,9,10,10,11,11,12,12,14,14,15,15],"right_children":[2,4,-1,6,8,10,12,14,16,18,20,22,24,-1,26,28,-1,-1,-1,-1,-1,-1,-1,-1,-1,-1,-1,-1,-1],"split_conditions":[3.64E2,3.6946533E3,4.7734875E1,3E0,3.926681E3,7.626E3,4E0,2E0,2.65E2,1E0,8.352429E3,8.044E3,1.006E4,6.267175E1,1.1E1,9.287E3,3.6450455E1,9.651172E0,2.845275E1,3.9738946E0,1.7409636E1,-1.1788468E1,-5.1944813E1,5.73099E-1,-2.9020187E1,2.9113607E0,2.3190584E1,-4.3630688E1,6.4811683E0],"split_indices":[3,7,0,0,7,6,0,1,3,0,6,5,5,0,2,5,0,0,0,0,0,0,0,0,0,0,0,0,0],"split_type":[0,0,0,0,0,0,0,0,0,0,0,0,0,0,0,0,0,0,0,0,0,0,0,0,0,0,0,0,0],"sum_hessian":[1.48E2,1.45E2,3E0,1.29E2,1.6E1,4.3E1,8.6E1,1E1,6E0,4E0,3.9E1,1.4E1,7.2E1,2E0,8E0,4E0,2E0,2E0,2E0,3.1E1,8E0,2E0,1.2E1,6.6E1,6E0,2E0,6E0,2E0,2E0],"tree_param":{"num_deleted":"0","num_feature":"8","num_nodes":"29","size_leaf_vector":"1"}},{"base_weights":[9.7071295E0,-1.5268641E1,4.59448E1,-7.0000275E1,4.0416553E2,1.7328625E2,-1.9223714E2,6.283054E2,-5.7922015E0,4.4200528E2,1.3536423E2,-9.044029E2,-4.3268322E1,6.0582684E1,3.6404428E2,-4.3093448E2,3.523545E1,9.329459E0,2.7504313E1,3.7814202E0,1.663589E1,-2.0019468E1,-5.2564075E1,5.4486465E-1,-2.7776472E1,2.0951025E1,-1.8941406E0,-4.2176327E1,6.2651205E0],"categories":[],"categories_nodes":[],"categories_segments":[],"categories_sizes":[],"default_left":[0,0,0,0,0,0,0,0,0,0,0,0,0,0,0,0,0,0,0,0,0,0,0,0,0,0,0,0,0],"id":27,"left_children":[1,3,-1,5,7,9,11,13,15,17,19,21,23,-1,25,27,-1,-1,-1,-1,-1,-1,-1,-1,-1,-1,-1,-1,-1],"loss_changes":[3.3974768E6,3.3799138E6,0E0,3.899328E6,1.5657335E6,3.8854475E5,9.190741E6,1.254623E6,2.4181322E6,3.5387938E4,4.4640012E5,6.8951E5,2.0315802E6,0E0,2.1474162E5,1.2531904E6,0E0,0E0,0E0,0E0,0E0,0E0,0E0,0E0,0E0,0E0,0E0,0E0,0E0],"parents":[2147483647,0,0,1,1,3,3,4,4,5,5,6,6,7,7,8,8,9,9,10,10,11,11,12,12,14,14,15,15],"right_children":[2,4,-1,6,8,10,12,14,16,18,20,22,24,-1,26,28,-1,-1,-1,-1,-1,-1,-1,-1,-1,-1,-1,-1,-1],"split_conditions":[3.64E2,3.6946533E3,4.59448E1,3E0,3.926681E3,7.626E3,4E0,2E0,2.65E2,1E0,8.352429E3,8.435E3,1.006E4,6.0582684E1,3.28E2,9.287E3,3.523545E1,9.329459E0,2.7504313E1,3.7814202E0,1.663589E1,-2.0019468E1,-5.2564075E1,5.4486465E-1,-2.7776472E1,2.0951025E1,-1.8941406E0,-4.2176327E1,6.2651205E0],"split_indices":[3,7,0,0,7,6,0,1,3,0,6,5,5,0,3,5,0,0,0,0,0,0,0,0,0,0,0,0,0],"split_type":[0,0,0,0,0,0,0,0,0,0,0,0,0,0,0,0,0,0,0,0,0,0,0,0,0,0,0,0,0],"sum_hessian":[1.48E2,1.45E2,3E0,1.29E2,1.6E1,4.3E1,8.6E1,1E1,6E0,4E0,3.9E1,1.4E1,7.2E1,2E0,8E0,4E0,2E0,2E0,2E0,3.1E1,8E0,4E0,1E1,6.6E1,6E0,7E0,1E0,2E0,2E0],"tree_param":{"num_deleted":"0","num_feature":"8","num_nodes":"29","size_leaf_vector":"1"}},{"base_weights":[9.77445E0,-1.4255877E1,4.422189E1,-1.23657906E2,1.8004689E2,1.518004E2,-2.7516486E2,8.014129E1,6.0162683E2,9.0726074E1,4.2169287E2,-8.5628644E2,-1.301924E2,3.8266302E2,-1.24508064E2,2.1148898E2,5.669807E1,1.2125053E1,5.1511353E-1,2.7847013E1,-6.363599E0,-1.9218687E1,-5.2209805E1,-3.7955596E0,-3.0177046E1,2.5830078E-1,2.1476364E1,1.1146551E1,-1.709988E1,1.9245314E1,3.2570412E0],"categories":[],"categories_nodes":[],"categories_segments":[],"categories_sizes":[],"default_left":[0,0,0,0,0,0,0,0,0,0,0,0,0,0,0,0,0,0,0,0,0,0,0,0,0,0,0,0,0,0,0],"id":28,"left_children":[1,3,-1,5,7,9,11,13,15,17,19,21,23,25,27,29,-1,-1,-1,-1,-1,-1,-1,-1,-1,-1,-1,-1,-1,-1,-1],"loss_changes":[3.1443565E6,3.1258035E6,0E0,3.964752E6,2.1840495E6,5.2218038E5,5.0275625E6,2.7717235E6,1.8370182E6,3.5148506E5,5.1635912E5,6.62762E5,1.2388808E6,3.16221E5,2.1164795E6,1.52582E5,0E0,0E0,0E0,0E0,0E0,0E0,0E0,0E0,0E0,0E0,0E0,0E0,0E0,0E0,0E0],"parents":[2147483647,0,0,1,1,3,3,4,4,5,5,6,6,7,7,8,8,9,9,10,10,11,11,12,12,13,13,14,14,15,15],"right_children":[2,4,-1,6,8,10,12,14,16,18,20,22,24,26,28,30,-1,-1,-1,-1,-1,-1,-1,-1,-1,-1,-1,-1,-1,-1,-1],"split_conditions":[3.64E2,2.5036907E3,4.422189E1,3E0,6E0,8.352429E3,4E0,7.848E3,8.558E3,7.9E1,3.4E2,8.435E3,9.147E3,2.4E1,8.0285713E3,2.9118237E3,5.669807E1,1.2125053E1,5.1511353E-1,2.7847013E1,-6.363599E0,-1.9218687E1,-5.2209805E1,-3.7955596E0,-3.0177046E1,2.5830078E-1,2.1476364E1,1.1146551E1,-1.709988E1,1.9245314E1,3.2570412E0],"split_indices":[3,7,0,0,0,6,0,4,6,3,3,5,4,3,6,7,0,0,0,0,0,0,0,0,0,0,0,0,0,0,0],"split_type":[0,0,0,0,0,0,0,0,0,0,0,0,0,0,0,0,0,0,0,0,0,0,0,0,0,0,0,0,0,0,0],"sum_hessian":[1.48E2,1.45E2,3E0,9.3E1,5.2E1,3.3E1,6E1,4.3E1,9E0,2.8E1,5E0,1.1E1,4.9E1,1.7E1,2.6E1,6E0,3E0,9E0,1.9E1,4E0,1E0,4E0,7E0,4.5E1,4E0,2E0,1.5E1,1E1,1.6E1,2E0,4E0],"tree_param":{"num_deleted":"0","num_feature":"8","num_nodes":"31","size_leaf_vector":"1"}},{"base_weights":[9.741693E0,-1.3380642E1,4.2563576E1,-6.452609E1,3.785187E2,1.6000452E2,-1.7734012E2,6.199984E2,2.9354187E1,4.1570175E2,1.2404225E2,-8.329952E2,-4.0187164E1,5.7260334E1,3.4554553E2,-4.0636163E2,5.666604E2,1.106825E1,2.9826221E1,-2.3927581E0,9.146828E0,-1.0087573E1,-4.572951E1,5.318068E-1,-2.604489E1,1.4000652E0,2.2336336E1,-4.020045E1,6.3369794E0,7.529004E0,3.2758022E1],"categories":[],"categories_nodes":[],"categories_segments":[],"categories_sizes":[],"default_left":[0,0,0,0,0,0,0,0,0,0,0,0,0,0,0,0,0,0,0,0,0,0,0,0,0,0,0,0,0,0,0],"id":29,"left_children":[1,3,-1,5,7,9,11,13,15,17,19,21,23,-1,25,27,29,-1,-1,-1,-1,-1,-1,-1,-1,-1,-1,-1,-1,-1,-1],"loss_changes":[2.9106522E6,2.9508288E6,0E0,3.3213015E6,1.4151752E6,3.5303538E5,7.790001E6,1.04572825E6,2.1031718E6,4.365275E4,4.1370562E5,5.88076E5,1.789025E6,0E0,2.4452719E5,1.161831E6,4.86385E4,0E0,0E0,0E0,0E0,0E0,0E0,0E0,0E0,0E0,0E0,0E0,0E0,0E0,0E0],"parents":[2147483647,0,0,1,1,3,3,4,4,5,5,6,6,7,7,8,8,9,9,10,10,11,11,12,12,14,14,15,15,16,16],"right_children":[2,4,-1,6,8,10,12,14,16,18,20,22,24,-1,26,28,30,-1,-1,-1,-1,-1,-1,-1,-1,-1,-1,-1,-1,-1,-1],"split_conditions":[3.64E2,3.6946533E3,4.2563576E1,3E0,3.8342048E3,7.626E3,4E0,2E0,2.65E2,2E0,7.989E3,8.044E3,1.006E4,5.7260334E1,1.1E1,9.287E3,5E0,1.106825E1,2.9826221E1,-2.3927581E0,9.146828E0,-1.0087573E1,-4.572951E1,5.318068E-1,-2.604489E1,1.4000652E0,2.2336336E1,-4.020045E1,6.3369794E0,7.529004E0,3.2758022E1],"split_indices":[3,7,0,0,7,6,0,1,3,1,4,5,5,0,2,5,0,0,0,0,0,0,0,0,0,0,0,0,0,0,0],"split_type":[0,0,0,0,0,0,0,0,0,0,0,0,0,0,0,0,0,0,0,0,0,0,0,0,0,0,0,0,0,0,0],"sum_hessian":[1.48E2,1.45E2,3E0,1.29E2,1.6E1,4.3E1,8.6E1,9E0,7E0,4E0,3.9E1,1.4E1,7.2E1,2E0,7E0,4E0,3E0,3E0,1E0,1E1,2.9E1,2E0,1.2E1,6.6E1,6E0,2E0,5E0,2E0,2E0,1E0,2E0],"tree_param":{"num_deleted":"0","num_feature":"8","num_nodes":"31","size_leaf_vector":"1"}},{"base_weights":[9.900869E0,-1.2343603E1,4.0967445E1,-1.1507683E2,1.7009538E2,1.388823E2,-2.547413E2,7.5816986E1,5.679108E2,8.07792E1,3.965669E2,-7.83446E2,-1.22757355E2,3.5597113E2,-1.1376049E2,2.0055832E2,5.3440002E1,7.13378E0,-4.9766665E0,2.6367285E1,-6.433179E0,-4.471562E1,-7.637134E0,-3.5492609E0,-2.872548E1,2.8133926E1,1.1659266E1,1.05702505E1,-1.5873496E1,1.8586067E1,2.8874414E0],"categories":[],"categories_nodes":[],"categories_segments":[],"categories_sizes":[],"default_left":[0,0,0,0,0,0,0,0,0,0,0,0,0,0,0,0,0,0,0,0,0,0,0,0,0,0,0,0,0,0,0],"id":30,"left_children":[1,3,-1,5,7,9,11,13,15,17,19,21,23,25,27,29,-1,-1,-1,-1,-1,-1,-1,-1,-1,-1,-1,-1,-1,-1,-1],"loss_changes":[2.6929695E6,2.7559858E6,0E0,3.3694715E6,1.9447292E6,4.7702294E5,4.1604395E6,2.3773755E6,1.6256722E6,3.378612E5,4.799843E5,7.024855E5,1.1286274E6,3.25645E5,1.8555749E6,1.4963944E5,0E0,0E0,0E0,0E0,0E0,0E0,0E0,0E0,0E0,0E0,0E0,0E0,0E0,0E0,0E0],"parents":[2147483647,0,0,1,1,3,3,4,4,5,5,6,6,7,7,8,8,9,9,10,10,11,11,12,12,13,13,14,14,15,15],"right_children":[2,4,-1,6,8,10,12,14,16,18,20,22,24,26,28,30,-1,-1,-1,-1,-1,-1,-1,-1,-1,-1,-1,-1,-1,-1,-1],"split_conditions":[3.64E2,2.5036907E3,4.0967445E1,3E0,6E0,8.352429E3,4E0,7.848E3,8.558E3,2.35E2,3.4E2,1.8494584E3,9.147E3,2.9806135E3,8.0285713E3,2.9118237E3,5.3440002E1,7.13378E0,-4.9766665E0,2.6367285E1,-6.433179E0,-4.471562E1,-7.637134E0,-3.5492609E0,-2.872548E1,2.8133926E1,1.1659266E1,1.05702505E1,-1.5873496E1,1.8586067E1,2.8874414E0],"split_indices":[3,7,0,0,0,6,0,4,6,3,3,7,4,7,6,7,0,0,0,0,0,0,0,0,0,0,0,0,0,0,0],"split_type":[0,0,0,0,0,0,0,0,0,0,0,0,0,0,0,0,0,0,0,0,0,0,0,0,0,0,0,0,0,0,0],"sum_hessian":[1.48E2,1.45E2,3E0,9.3E1,5.2E1,3.3E1,6E1,4.3E1,9E0,2.8E1,5E0,1.1E1,4.9E1,1.7E1,2.6E1,6E0,3E0,2.1E1,7E0,4E0,1E0,9E0,2E0,4.5E1,4E0,5E0,1.2E1,1E1,1.6E1,2E0,4E0],"tree_param":{"num_deleted":"0","num_feature":"8","num_nodes":"31","size_leaf_vector":"1"}},{"base_weights":[9.995242E0,-1.5261076E2,1.1239908E2,1.6659003E2,-3.2499512E2,1.9039886E2,-2.6999985E2,6.80816E1,2.8411524E1,3.2362955E0,-5.165983E2,1.4534166E2,6.993523E2,-4.3501993E2,5.9009375E2,2.598838E2,-4.9476482E1,-2.8333118E1,1.9293282E2,-9.7683734E2,-2.2542645E2,1.817445E2,-3.7880557E2,4.4470078E1,-6.2723513E0,-4.9268238E1,-2.6118204E2,6.8118167E0,3.7445217E1,1.5432822E1,4.5984054E0,-5.8196673E0,5.6727786E0,-3.215094E0,1.429112E1,-2.6774652E1,-6.1140713E1,-1.8306581E1,2.5316992E1,3.7221115E0,2.3783537E1,-3.4751377E1,3.1842449E0,-2.0054264E1,7.4497557E-1],"categories":[],"categories_nodes":[],"categories_segments":[],"categories_sizes":[],"default_left":[0,0,0,0,0,0,0,0,0,0,0,0,0,0,0,0,0,0,0,0,0,0,0,0,0,0,0,0,0,0,0,0,0,0,0,0,0,0,0,0,0,0,0,0,0],"id":31,"left_children":[1,3,5,7,9,11,13,15,-1,17,19,21,23,25,27,29,31,-1,33,35,37,39,41,-1,-1,-1,43,-1,-1,-1,-1,-1,-1,-1,-1,-1,-1,-1,-1,-1,-1,-1,-1,-1,-1],"loss_changes":[2.4982238E6,3.2456045E6,2.7954945E6,7.921784E5,2.3914985E6,1.664121E6,2.527626E6,4.1872025E5,0E0,1.7309446E6,2.9960015E6,1.4426389E6,1.0520878E6,1.0820312E6,1.1420394E5,2.8941344E4,1.4404028E5,0E0,3.0511194E5,3.22236E5,1.8327999E6,2.1092388E6,7.4388856E5,0E0,0E0,0E0,4.6947238E5,0E0,0E0,0E0,0E0,0E0,0E0,0E0,0E0,0E0,0E0,0E0,0E0,0E0,0E0,0E0,0E0,0E0,0E0],"parents":[2147483647,0,0,1,1,2,2,3,3,4,4,5,5,6,6,7,7,9,9,10,10,11,11,12,12,13,13,14,14,15,15,16,16,18,18,19,19,20,20,21,21,22,22,26,26],"right_children":[2,4,6,8,10,12,14,16,-1,18,20,22,24,26,28,30,32,-1,34,36,38,40,42,-1,-1,-1,44,-1,-1,-1,-1,-1,-1,-1,-1,-1,-1,-1,-1,-1,-1,-1,-1,-1,-1],"split_conditions":[1.7774274E3,2E0,1.0833E4,4E0,7.6754287E3,3.57E2,1.0257E4,7.9E1,2.8411524E1,1.192345E3,5E0,8.853857E3,1.0907E4,1.0874E4,2E0,7.746E3,8.609E3,-2.8333118E1,3E0,3E0,8.828E3,8.977E3,9.255E3,4.4470078E1,-6.2723513E0,-4.9268238E1,3.3668687E3,6.8118167E0,3.7445217E1,1.5432822E1,4.5984054E0,-5.8196673E0,5.6727786E0,-3.215094E0,1.429112E1,-2.6774652E1,-6.1140713E1,-1.8306581E1,2.5316992E1,3.7221115E0,2.3783537E1,-3.4751377E1,3.1842449E0,-2.0054264E1,7.4497557E-1],"split_indices":[7,0,5,1,6,3,6,3,0,7,0,6,4,5,0,6,5,0,2,1,5,5,4,0,0,0,7,0,0,0,0,0,0,0,0,0,0,0,0,0,0,0,0,0,0],"split_type":[0,0,0,0,0,0,0,0,0,0,0,0,0,0,0,0,0,0,0,0,0,0,0,0,0,0,0,0,0,0,0,0,0,0,0,0,0,0,0,0,0,0,0,0,0],"sum_hessian":[1.48E2,5.7E1,9.1E1,2E1,3.7E1,7.6E1,1.5E1,1.7E1,3E0,1.4E1,2.3E1,7.1E1,5E0,1.3E1,2E0,6E0,1.1E1,3E0,1.1E1,8E0,1.5E1,6.7E1,4E0,4E0,1E0,2E0,1.1E1,1E0,1E0,4E0,2E0,8E0,3E0,3E0,8E0,4E0,4E0,1.3E1,2E0,5E1,1.7E1,2E0,2E0,7E0,4E0],"tree_param":{"num_deleted":"0","num_feature":"8","num_nodes":"45","size_leaf_vector":"1"}},{"base_weights":[9.226831E0,-1.1275926E1,3.776354E1,-5.8250805E1,3.4860703E2,1.4181694E2,-1.5876494E2,5.76179E2,2.0566162E1,3.8151447E2,1.08309326E2,-7.410107E2,-3.6950542E1,5.3580536E1,3.1836975E2,-3.802041E2,5.1638745E2,9.953333E0,2.7782642E1,2.726912E0,1.4373054E1,-7.7609706E0,-4.095962E1,-1.4913028E1,2.3850896E0,8.4069014E-1,2.0804304E1,-3.781416E1,6.130485E0,6.454712E0,3.012269E1],"categories":[],"categories_nodes":[],"categories_segments":[],"categories_sizes":[],"default_left":[0,0,0,0,0,0,0,0,0,0,0,0,0,0,0,0,0,0,0,0,0,0,0,0,0,0,0,0,0,0,0],"id":32,"left_children":[1,3,-1,5,7,9,11,13,15,17,19,21,23,-1,25,27,29,-1,-1,-1,-1,-1,-1,-1,-1,-1,-1,-1,-1,-1,-1],"loss_changes":[2.2876142E6,2.4885032E6,0E0,2.6367682E6,1.2572498E6,3.120728E5,6.143174E6,9.361E5,1.786016E6,4.8243875E4,3.6964972E5,5.598175E5,1.6290242E6,0E0,2.2873956E5,1.03821644E6,5.555825E4,0E0,0E0,0E0,0E0,0E0,0E0,0E0,0E0,0E0,0E0,0E0,0E0,0E0,0E0],"parents":[2147483647,0,0,1,1,3,3,4,4,5,5,6,6,7,7,8,8,9,9,10,10,11,11,12,12,14,14,15,15,16,16],"right_children":[2,4,-1,6,8,10,12,14,16,18,20,22,24,-1,26,28,30,-1,-1,-1,-1,-1,-1,-1,-1,-1,-1,-1,-1,-1,-1],"split_conditions":[3.64E2,3.6946533E3,3.776354E1,3E0,3.8342048E3,7.626E3,4E0,2E0,2.65E2,2E0,8.352429E3,8.044E3,7.6E1,5.3580536E1,1.1E1,9.287E3,5E0,9.953333E0,2.7782642E1,2.726912E0,1.4373054E1,-7.7609706E0,-4.095962E1,-1.4913028E1,2.3850896E0,8.4069014E-1,2.0804304E1,-3.781416E1,6.130485E0,6.454712E0,3.012269E1],"split_indices":[3,7,0,0,7,6,0,1,3,1,6,5,3,0,2,5,0,0,0,0,0,0,0,0,0,0,0,0,0,0,0],"split_type":[0,0,0,0,0,0,0,0,0,0,0,0,0,0,0,0,0,0,0,0,0,0,0,0,0,0,0,0,0,0,0],"sum_hessian":[1.48E2,1.45E2,3E0,1.29E2,1.6E1,4.3E1,8.6E1,9E0,7E0,4E0,3.9E1,1.4E1,7.2E1,2E0,7E0,4E0,3E0,3E0,1E0,3.1E1,8E0,2E0,1.2E1,1.7E1,5.5E1,2E0,5E0,2E0,2E0,1E0,2E0],"tree_param":{"num_deleted":"0","num_feature":"8","num_nodes":"31","size_leaf_vector":"1"}},{"base_weights":[9.513704E0,-1.415379E2,1.0463849E2,1.5505692E2,-3.017209E2,1.7799748E2,-2.5494159E2,6.1757E1,2.6807117E1,4.9872723E0,-4.808418E2,1.3626872E2,6.490764E2,-4.0979547E2,5.526904E2,2.4534947E2,-5.0485027E1,-2.7143843E1,1.8719304E2,-9.098604E2,-2.0946622E2,1.7081366E2,-3.607962E2,8.306906E2,-6.474866E0,-4.6983067E1,-2.431794E2,6.2822022E0,3.5169582E1,1.4561923E1,4.354232E0,-5.6822104E0,5.212219E0,-2.6246889E0,1.3646064E1,-2.4397285E1,-5.749015E1,-1.7196695E1,2.4393587E1,3.540453E0,2.2233519E1,-3.3002514E1,2.9361656E0,1.1816382E1,4.6009975E1,-1.852534E1,4.5901367E-1],"categories":[],"categories_nodes":[],"categories_segments":[],"categories_sizes":[],"default_left":[0,0,0,0,0,0,0,0,0,0,0,0,0,0,0,0,0,0,0,0,0,0,0,0,0,0,0,0,0,0,0,0,0,0,0,0,0,0,0,0,0,0,0,0,0,0,0],"id":33,"left_children":[1,3,5,7,9,11,13,15,-1,17,19,21,23,25,27,29,31,-1,33,35,37,39,41,43,-1,-1,45,-1,-1,-1,-1,-1,-1,-1,-1,-1,-1,-1,-1,-1,-1,-1,-1,-1,-1,-1,-1],"loss_changes":[2.1557545E6,2.8023315E6,2.472195E6,7.135494E5,2.090036E6,1.425182E6,2.2275295E6,3.833087E5,0E0,1.5989826E6,2.6036195E6,1.2979465E6,9.5597225E5,1.007472E6,1.0469219E5,2.5475906E4,1.2911776E5,0E0,2.6090184E5,3.50076E5,1.6681065E6,1.8308242E6,6.6647494E5,4.853525E4,0E0,0E0,3.889888E5,0E0,0E0,0E0,0E0,0E0,0E0,0E0,0E0,0E0,0E0,0E0,0E0,0E0,0E0,0E0,0E0,0E0,0E0,0E0,0E0],"parents":[2147483647,0,0,1,1,2,2,3,3,4,4,5,5,6,6,7,7,9,9,10,10,11,11,12,12,13,13,14,14,15,15,16,16,18,18,19,19,20,20,21,21,22,22,23,23,26,26],"right_children":[2,4,6,8,10,12,14,16,-1,18,20,22,24,26,28,30,32,-1,34,36,38,40,42,44,-1,-1,46,-1,-1,-1,-1,-1,-1,-1,-1,-1,-1,-1,-1,-1,-1,-1,-1,-1,-1,-1,-1],"split_conditions":[1.7774274E3,2E0,1.0833E4,4E0,7.6754287E3,3.57E2,1.0257E4,7.9E1,2.6807117E1,1.192345E3,5E0,8.853857E3,1.0907E4,1.0874E4,2E0,7.746E3,8.609E3,-2.7143843E1,3E0,3E0,8.828E3,8.977E3,9.255E3,1E0,-6.474866E0,-4.6983067E1,3.3668687E3,6.2822022E0,3.5169582E1,1.4561923E1,4.354232E0,-5.6822104E0,5.212219E0,-2.6246889E0,1.3646064E1,-2.4397285E1,-5.749015E1,-1.7196695E1,2.4393587E1,3.540453E0,2.2233519E1,-3.3002514E1,2.9361656E0,1.1816382E1,4.6009975E1,-1.852534E1,4.5901367E-1],"split_indices":[7,0,5,1,6,3,6,3,0,7,0,6,4,5,0,6,5,0,2,1,5,5,4,0,0,0,7,0,0,0,0,0,0,0,0,0,0,0,0,0,0,0,0,0,0,0,0],"split_type":[0,0,0,0,0,0,0,0,0,0,0,0,0,0,0,0,0,0,0,0,0,0,0,0,0,0,0,0,0,0,0,0,0,0,0,0,0,0,0,0,0,0,0,0,0,0,0],"sum_hessian":[1.48E2,5.7E1,9.1E1,2E1,3.7E1,7.6E1,1.5E1,1.7E1,3E0,1.4E1,2.3E1,7.1E1,5E0,1.3E1,2E0,6E0,1.1E1,3E0,1.1E1,8E0,1.5E1,6.7E1,4E0,4E0,1E0,2E0,1.1E1,1E0,1E0,4E0,2E0,8E0,3E0,3E0,8E0,4E0,4E0,1.3E1,2E0,5E1,1.7E1,2E0,2E0,1E0,3E0,7E0,4E0],"tree_param":{"num_deleted":"0","num_feature":"8","num_nodes":"47","size_leaf_vector":"1"}},{"base_weights":[8.889884E0,-1.0132626E1,3.504945E1,-5.4215168E1,3.275652E2,1.309828E2,-1.4725536E2,5.429354E2,1.7406738E1,3.5900684E2,9.920524E1,-6.841352E2,-3.4920376E1,5.1149364E1,2.9504907E2,-3.6231757E2,4.8771045E2,9.171802E0,2.6532251E1,-2.0083423E0,8.018533E0,-7.051913E0,-3.7841976E1,-1.3816358E1,2.164912E0,6.946615E-1,1.9322607E1,-3.6062664E1,5.869531E0,5.7375E0,2.868903E1],"categories":[],"categories_nodes":[],"categories_segments":[],"categories_sizes":[],"default_left":[0,0,0,0,0,0,0,0,0,0,0,0,0,0,0,0,0,0,0,0,0,0,0,0,0,0,0,0,0,0,0],"id":34,"left_children":[1,3,-1,5,7,9,11,13,15,17,19,21,23,-1,25,27,29,-1,-1,-1,-1,-1,-1,-1,-1,-1,-1,-1,-1,-1,-1],"loss_changes":[1.9687568E6,2.1911995E6,0E0,2.2592988E6,1.1261306E6,2.8321088E5,5.223113E6,8.881515E5,1.605392E6,5.3333812E4,3.4743166E5,4.855385E5,1.3903871E6,0E0,2.00219E5,9.455904E5,6.2561688E4,0E0,0E0,0E0,0E0,0E0,0E0,0E0,0E0,0E0,0E0,0E0,0E0,0E0,0E0],"parents":[2147483647,0,0,1,1,3,3,4,4,5,5,6,6,7,7,8,8,9,9,10,10,11,11,12,12,14,14,15,15,16,16],"right_children":[2,4,-1,6,8,10,12,14,16,18,20,22,24,-1,26,28,30,-1,-1,-1,-1,-1,-1,-1,-1,-1,-1,-1,-1,-1,-1],"split_conditions":[3.64E2,3.6946533E3,3.504945E1,3E0,3.8342048E3,7.626E3,4E0,2E0,2.65E2,2E0,8.085E3,8.044E3,7.6E1,5.1149364E1,1.1E1,9.287E3,5E0,9.171802E0,2.6532251E1,-2.0083423E0,8.018533E0,-7.051913E0,-3.7841976E1,-1.3816358E1,2.164912E0,6.946615E-1,1.9322607E1,-3.6062664E1,5.869531E0,5.7375E0,2.868903E1],"split_indices":[3,7,0,0,7,6,0,1,3,1,4,5,3,0,2,5,0,0,0,0,0,0,0,0,0,0,0,0,0,0,0],"split_type":[0,0,0,0,0,0,0,0,0,0,0,0,0,0,0,0,0,0,0,0,0,0,0,0,0,0,0,0,0,0,0],"sum_hessian":[1.48E2,1.45E2,3E0,1.29E2,1.6E1,4.3E1,8.6E1,9E0,7E0,4E0,3.9E1,1.4E1,7.2E1,2E0,7E0,4E0,3E0,3E0,1E0,1.2E1,2.7E1,2E0,1.2E1,1.7E1,5.5E1,2E0,5E0,2E0,2E0,1E0,2E0],"tree_param":{"num_deleted":"0","num_feature":"8","num_nodes":"31","size_leaf_vector":"1"}},{"base_weights":[9.087101E0,-1.3101025E2,9.731057E1,1.450552E2,-2.801251E2,1.6620584E2,-2.4032983E2,5.5892525E1,2.5501173E1,6.518457E0,-4.4760544E2,1.2725132E2,6.0595917E2,-3.8590918E2,5.191504E2,2.3001437E2,-5.033626E1,-2.600736E1,1.8153047E2,-8.4769507E2,-1.9457971E2,1.6000119E2,-3.4359708E2,7.792586E2,-6.513452E0,-4.4822353E1,-2.261156E2,5.9246826E0,3.3011597E1,1.3735929E1,3.941797E0,-5.5632E0,4.96676E0,-2.0927064E0,1.3032123E1,-2.2215616E1,-5.4076942E1,-1.6156334E1,2.35083E1,3.3317685E0,2.0782436E1,-3.1337477E1,2.7043865E0,1.0644727E1,4.3381298E1,-3.4098022E0,-2.167819E1],"categories":[],"categories_nodes":[],"categories_segments":[],"categories_sizes":[],"default_left":[0,0,0,0,0,0,0,0,0,0,0,0,0,0,0,0,0,0,0,0,0,0,0,0,0,0,0,0,0,0,0,0,0,0,0,0,0,0,0,0,0,0,0,0,0,0,0],"id":35,"left_children":[1,3,5,7,9,11,13,15,-1,17,19,21,23,25,27,29,31,-1,33,35,37,39,41,43,-1,-1,45,-1,-1,-1,-1,-1,-1,-1,-1,-1,-1,-1,-1,-1,-1,-1,-1,-1,-1,-1,-1],"loss_changes":[1.85437E6,2.4282302E6,2.1800325E6,6.548659E5,1.8271902E6,1.2419302E6,1.9693791E6,3.4451962E5,0E0,1.4770149E6,2.2646465E6,1.1652318E6,8.6704075E5,9.394289E5,9.13425E4,2.5650469E4,1.2048216E5,0E0,2.2297781E5,3.684155E5,1.5191398E6,1.5953772E6,5.969266E5,6.552775E4,0E0,0E0,3.6355412E5,0E0,0E0,0E0,0E0,0E0,0E0,0E0,0E0,0E0,0E0,0E0,0E0,0E0,0E0,0E0,0E0,0E0,0E0,0E0,0E0],"parents":[2147483647,0,0,1,1,2,2,3,3,4,4,5,5,6,6,7,7,9,9,10,10,11,11,12,12,13,13,14,14,15,15,16,16,18,18,19,19,20,20,21,21,22,22,23,23,26,26],"right_children":[2,4,6,8,10,12,14,16,-1,18,20,22,24,26,28,30,32,-1,34,36,38,40,42,44,-1,-1,46,-1,-1,-1,-1,-1,-1,-1,-1,-1,-1,-1,-1,-1,-1,-1,-1,-1,-1,-1,-1],"split_conditions":[1.7774274E3,2E0,1.0833E4,4E0,7.6754287E3,3.57E2,1.0257E4,7.9E1,2.5501173E1,1.192345E3,5E0,8.853857E3,1.0907E4,1.0874E4,2E0,7.746E3,8.609E3,-2.600736E1,3E0,3E0,8.828E3,8.977E3,9.255E3,1E0,-6.513452E0,-4.4822353E1,8.891571E3,5.9246826E0,3.3011597E1,1.3735929E1,3.941797E0,-5.5632E0,4.96676E0,-2.0927064E0,1.3032123E1,-2.2215616E1,-5.4076942E1,-1.6156334E1,2.35083E1,3.3317685E0,2.0782436E1,-3.1337477E1,2.7043865E0,1.0644727E1,4.3381298E1,-3.4098022E0,-2.167819E1],"split_indices":[7,0,5,1,6,3,6,3,0,7,0,6,4,5,0,6,5,0,2,1,5,5,4,0,0,0,6,0,0,0,0,0,0,0,0,0,0,0,0,0,0,0,0,0,0,0,0],"split_type":[0,0,0,0,0,0,0,0,0,0,0,0,0,0,0,0,0,0,0,0,0,0,0,0,0,0,0,0,0,0,0,0,0,0,0,0,0,0,0,0,0,0,0,0,0,0,0],"sum_hessian":[1.48E2,5.7E1,9.1E1,2E1,3.7E1,7.6E1,1.5E1,1.7E1,3E0,1.4E1,2.3E1,7.1E1,5E0,1.3E1,2E0,6E0,1.1E1,3E0,1.1E1,8E0,1.5E1,6.7E1,4E0,4E0,1E0,2E0,1.1E1,1E0,1E0,4E0,2E0,8E0,3E0,3E0,8E0,4E0,4E0,1.3E1,2E0,5E1,1.7E1,2E0,2E0,1E0,3E0,7E0,4E0],"tree_param":{"num_deleted":"0","num_feature":"8","num_nodes":"47","size_leaf_vector":"1"}},{"base_weights":[8.435367E0,-2.9928627E1,3.08081E2,1.4167235E2,-1.1928903E2,5.117037E2,1.504248E1,7.772441E1,2.9802292E2,-6.32048E2,-1.3739396E1,4.8838657E1,2.7333972E2,-3.4449786E2,4.6070728E2,9.860813E1,-1.5285962E1,3.433827E1,1.1272363E2,-6.4117103E0,-6.996936E2,-2.564713E2,6.3153824E1,3.6734164E2,-5.7773438E0,-3.4393814E1,1.1371322E2,5.074512E0,2.733081E1,8.98484E0,1.4700427E0,-1.5576416E1,9.723849E0,-4.721343E1,-2.1440037E1,-5.535887E0,-2.6476273E1,5.787837E0,-2.535339E1,5.6044924E-1,2.7130285E1,-2.848877E0,2.4155762E0,8.221778E0,3.0671388E-1],"categories":[],"categories_nodes":[],"categories_segments":[],"categories_sizes":[],"default_left":[0,0,0,0,0,0,0,0,0,0,0,0,0,0,0,0,0,0,0,0,0,0,0,0,0,0,0,0,0,0,0,0,0,0,0,0,0,0,0,0,0,0,0,0,0],"id":36,"left_children":[1,3,5,7,9,11,13,15,17,19,21,-1,23,25,27,29,-1,-1,31,-1,33,35,37,39,41,-1,43,-1,-1,-1,-1,-1,-1,-1,-1,-1,-1,-1,-1,-1,-1,-1,-1,-1,-1],"loss_changes":[1.7220654E6,2.0563661E6,1.0066806E6,4.3675794E5,4.75401E6,8.41567E5,1.4405884E6,3.0240925E5,8.590234E5,4.21487E5,1.3973656E6,0E0,2.1202256E5,8.6491975E5,6.7963625E4,1.7991034E5,0E0,0E0,4.074253E5,0E0,4.56394E5,6.5774725E5,1.7684294E6,3.684215E5,1.1060754E4,0E0,1.536127E4,0E0,0E0,0E0,0E0,0E0,0E0,0E0,0E0,0E0,0E0,0E0,0E0,0E0,0E0,0E0,0E0,0E0,0E0],"parents":[2147483647,0,0,1,1,2,2,3,3,4,4,5,5,6,6,7,7,8,8,9,9,10,10,12,12,13,13,14,14,15,15,18,18,20,20,21,21,22,22,23,23,24,24,26,26],"right_children":[2,4,6,8,10,12,14,16,18,20,22,-1,24,26,28,30,-1,-1,32,-1,34,36,38,40,42,-1,44,-1,-1,-1,-1,-1,-1,-1,-1,-1,-1,-1,-1,-1,-1,-1,-1,-1,-1],"split_conditions":[3.6946533E3,3E0,3.8342048E3,2.89E2,4E0,2E0,2.65E2,2.85E2,1.1E1,8.044E3,7.6E1,4.8838657E1,9.134E3,9.287E3,5E0,7.7535713E3,-1.5285962E1,3.433827E1,3.2E2,-6.4117103E0,7.8295713E3,6E0,1.006E4,1.1E1,6E0,-3.4393814E1,2E0,5.074512E0,2.733081E1,8.98484E0,1.4700427E0,-1.5576416E1,9.723849E0,-4.721343E1,-2.1440037E1,-5.535887E0,-2.6476273E1,5.787837E0,-2.535339E1,5.6044924E-1,2.7130285E1,-2.848877E0,2.4155762E0,8.221778E0,3.0671388E-1],"split_indices":[7,0,7,3,0,1,3,3,2,5,3,0,4,5,0,6,0,0,3,0,6,0,5,2,0,0,0,0,0,0,0,0,0,0,0,0,0,0,0,0,0,0,0,0,0],"split_type":[0,0,0,0,0,0,0,0,0,0,0,0,0,0,0,0,0,0,0,0,0,0,0,0,0,0,0,0,0,0,0,0,0,0,0,0,0,0,0,0,0,0,0,0,0],"sum_hessian":[1.48E2,1.32E2,1.6E1,4.5E1,8.7E1,9E0,7E0,3.3E1,1.2E1,1.4E1,7.3E1,2E0,7E0,4E0,3E0,3.2E1,1E0,3E0,9E0,2E0,1.2E1,1.7E1,5.6E1,5E0,2E0,2E0,2E0,1E0,2E0,1.4E1,1.8E1,1E0,8E0,5E0,7E0,1.2E1,5E0,5.2E1,4E0,2E0,3E0,1E0,1E0,1E0,1E0],"tree_param":{"num_deleted":"0","num_feature":"8","num_nodes":"45","size_leaf_vector":"1"}},{"base_weights":[7.877058E0,-9.6060505E0,3.2202065E1,-4.969714E1,2.975379E2,1.2138255E2,-1.3272815E2,4.9372812E2,1.510791E1,3.8706795E1,7.419769E2,8.081664E1,-2.561969E2,4.7210693E1,2.6307996E2,-3.324459E2,4.457732E2,-1.4317049E1,5.324169E0,6.963965E0,4.289158E1,1.3344294E1,1.0228121E0,-3.1553633E1,-5.1827617E0,1.7679493E1,-2.8165692E-1,-3.324735E1,5.5435224E0,4.947656E0,2.6419775E1],"categories":[],"categories_nodes":[],"categories_segments":[],"categories_sizes":[],"default_left":[0,0,0,0,0,0,0,0,0,0,0,0,0,0,0,0,0,0,0,0,0,0,0,0,0,0,0,0,0,0,0],"id":37,"left_children":[1,3,-1,5,7,9,11,13,15,17,19,21,23,-1,25,27,29,-1,-1,-1,-1,-1,-1,-1,-1,-1,-1,-1,-1,-1,-1],"loss_changes":[1.6633839E6,1.8125921E6,0E0,1.8627505E6,9.3451075E5,2.1775295E6,2.340923E6,7.906335E5,1.3456302E6,8.8968506E5,2.2964825E5,3.651705E5,3.1369E6,0E0,1.9656138E5,8.1073875E5,6.2333938E4,0E0,0E0,0E0,0E0,0E0,0E0,0E0,0E0,0E0,0E0,0E0,0E0,0E0,0E0],"parents":[2147483647,0,0,1,1,3,3,4,4,5,5,6,6,7,7,8,8,9,9,10,10,11,11,12,12,14,14,15,15,16,16],"right_children":[2,4,-1,6,8,10,12,14,16,18,20,22,24,-1,26,28,30,-1,-1,-1,-1,-1,-1,-1,-1,-1,-1,-1,-1,-1,-1],"split_conditions":[3.64E2,3.6946533E3,3.2202065E1,7.678E3,3.8342048E3,8.717E3,3E0,2E0,2.65E2,1.192345E3,2E0,1.359115E3,7.8295713E3,4.7210693E1,9.134E3,9.287E3,5E0,-1.4317049E1,5.324169E0,6.963965E0,4.289158E1,1.3344294E1,1.0228121E0,-3.1553633E1,-5.1827617E0,1.7679493E1,-2.8165692E-1,-3.324735E1,5.5435224E0,4.947656E0,2.6419775E1],"split_indices":[3,7,0,6,7,5,0,1,3,7,1,7,6,0,4,5,0,0,0,0,0,0,0,0,0,0,0,0,0,0,0],"split_type":[0,0,0,0,0,0,0,0,0,0,0,0,0,0,0,0,0,0,0,0,0,0,0,0,0,0,0,0,0,0,0],"sum_hessian":[1.48E2,1.45E2,3E0,1.29E2,1.6E1,4.2E1,8.7E1,9E0,7E0,3.8E1,4E0,3.2E1,5.5E1,2E0,7E0,4E0,3E0,6E0,3.2E1,1E0,3E0,7E0,2.5E1,1.5E1,4E1,5E0,2E0,2E0,2E0,1E0,2E0],"tree_param":{"num_deleted":"0","num_feature":"8","num_nodes":"31","size_leaf_vector":"1"}},{"base_weights":[8.281617E0,-8.53149E0,6.1988965E2,3.361473E2,-4.190681E1,9.330469E0,3.5105663E1,4.75152E2,1.8987537E2,1.317204E2,-1.3117586E2,1.6044922E-1,5.688988E2,9.316406E-1,1.5152763E1,7.696122E1,2.9895764E2,-5.907649E2,-3.750903E1,4.1253353E1,6.154883E0,-1.0667237E0,7.7325845E-1,1.5676045E1,1.8796867E0,3.0821583E1,5.1425476E0,-1.1997734E1,-3.482591E1,7.319717E0,-5.830422E0],"categories":[],"categories_nodes":[],"categories_segments":[],"categories_sizes":[],"default_left":[0,0,0,0,0,0,0,0,0,0,0,0,0,0,0,0,0,0,0,0,0,0,0,0,0,0,0,0,0,0,0],"id":38,"left_children":[1,3,5,7,9,-1,-1,11,13,15,17,-1,19,21,-1,23,25,27,29,-1,-1,-1,-1,-1,-1,-1,-1,-1,-1,-1,-1],"loss_changes":[1.5374602E6,1.6936368E6,1.14825E4,1.7410262E5,2.094216E6,0E0,0E0,2.6363338E5,1.7079472E5,3.9824944E5,3.8091348E6,0E0,4.6943675E5,1.624362E3,0E0,3.2347294E5,6.2144594E5,3.893575E5,1.1080694E6,0E0,0E0,0E0,0E0,0E0,0E0,0E0,0E0,0E0,0E0,0E0,0E0],"parents":[2147483647,0,0,1,1,2,2,3,3,4,4,7,7,8,8,9,9,10,10,12,12,13,13,15,15,16,16,17,17,18,18],"right_children":[2,4,6,8,10,-1,-1,12,14,16,18,-1,20,22,-1,24,26,28,30,-1,-1,-1,-1,-1,-1,-1,-1,-1,-1,-1,-1],"split_conditions":[3.64E2,3.73E3,1E0,4E0,3E0,9.330469E0,3.5105663E1,1.8E1,3.73E3,8.352429E3,4E0,1.6044922E-1,2.024E3,1.459E3,1.5152763E1,7.626E3,8.604E3,8.435E3,7.531E3,4.1253353E1,6.154883E0,-1.0667237E0,7.7325845E-1,1.5676045E1,1.8796867E0,3.0821583E1,5.1425476E0,-1.1997734E1,-3.482591E1,7.319717E0,-5.830422E0],"split_indices":[3,4,0,1,0,0,0,3,5,6,0,0,4,4,0,6,6,5,5,0,0,0,0,0,0,0,0,0,0,0,0],"split_type":[0,0,0,0,0,0,0,0,0,0,0,0,0,0,0,0,0,0,0,0,0,0,0,0,0,0,0,0,0,0,0],"sum_hessian":[1.48E2,1.45E2,3E0,1.2E1,1.33E2,1E0,2E0,5E0,7E0,4.5E1,8.8E1,1E0,4E0,3E0,4E0,3.5E1,1E1,1.4E1,7.4E1,2E0,2E0,1E0,2E0,4E0,3.1E1,3E0,7E0,4E0,1E1,2.2E1,5.2E1],"tree_param":{"num_deleted":"0","num_feature":"8","num_nodes":"31","size_leaf_vector":"1"}},{"base_weights":[8.639681E0,-7.621268E0,6.000044E2,-8.613603E1,1.3177513E2,9.097217E0,3.3935482E1,9.365794E1,-1.84937E2,5.2758568E1,4.662705E2,5.003999E1,2.888684E2,-5.505932E2,-9.348078E1,2.6767377E2,-9.247226E1,1.6074484E2,4.421864E1,5.2985396E0,-5.501236E0,2.003124E1,-6.7478395E0,-3.2357494E1,-2.260319E0,-2.3933113E0,-2.472193E1,2.3188437E1,7.8289065E0,3.7778175E1,-7.707458E0,1.6304884E1,1.4692091E0],"categories":[],"categories_nodes":[],"categories_segments":[],"categories_sizes":[],"default_left":[0,0,0,0,0,0,0,0,0,0,0,0,0,0,0,0,0,0,0,0,0,0,0,0,0,0,0,0,0,0,0,0,0],"id":39,"left_children":[1,3,5,7,9,-1,-1,11,13,15,17,19,21,23,25,27,29,31,-1,-1,-1,-1,-1,-1,-1,-1,-1,-1,-1,-1,-1,-1,-1],"loss_changes":[1.4373794E6,1.6092732E6,8.12675E3,1.6871199E6,1.376226E6,0E0,0E0,2.750442E5,1.9884635E6,1.3980942E6,1.1352515E6,2.712833E5,3.3825806E5,5.563265E5,8.908086E5,3.1951925E5,1.528683E6,1.4246386E5,0E0,0E0,0E0,0E0,0E0,0E0,0E0,0E0,0E0,0E0,0E0,0E0,0E0,0E0,0E0],"parents":[2147483647,0,0,1,1,2,2,3,3,4,4,7,7,8,8,9,9,10,10,11,11,12,12,13,13,14,14,15,15,16,16,17,17],"right_children":[2,4,6,8,10,-1,-1,12,14,16,18,20,22,24,26,28,30,32,-1,-1,-1,-1,-1,-1,-1,-1,-1,-1,-1,-1,-1,-1,-1],"split_conditions":[3.64E2,2.5036907E3,1E0,3E0,6E0,9.097217E0,3.3935482E1,8.352429E3,4E0,7.848E3,8.558E3,2.35E2,3.4E2,1.8494584E3,9.147E3,2.9806135E3,7.391143E3,2.9118237E3,4.421864E1,5.2985396E0,-5.501236E0,2.003124E1,-6.7478395E0,-3.2357494E1,-2.260319E0,-2.3933113E0,-2.472193E1,2.3188437E1,7.8289065E0,3.7778175E1,-7.707458E0,1.6304884E1,1.4692091E0],"split_indices":[3,7,0,0,0,0,0,6,0,4,6,3,3,7,4,7,6,7,0,0,0,0,0,0,0,0,0,0,0,0,0,0,0],"split_type":[0,0,0,0,0,0,0,0,0,0,0,0,0,0,0,0,0,0,0,0,0,0,0,0,0,0,0,0,0,0,0,0,0],"sum_hessian":[1.48E2,1.45E2,3E0,9.3E1,5.2E1,1E0,2E0,3.3E1,6E1,4.3E1,9E0,2.8E1,5E0,1.1E1,4.9E1,1.7E1,2.6E1,6E0,3E0,2.1E1,7E0,4E0,1E0,9E0,2E0,4.5E1,4E0,5E0,1.2E1,1E0,2.5E1,2E0,4E0],"tree_param":{"num_deleted":"0","num_feature":"8","num_nodes":"33","size_leaf_vector":"1"}},{"base_weights":[8.996009E0,-1.2846811E2,7.559745E1,1.1757371E2,-2.7512378E2,1.285917E2,-2.1397156E2,3.0687988E1,4.3572314E2,2.0585002E2,-3.7553607E2,9.749435E1,5.269742E2,-3.4340668E2,4.613828E2,2.191416E2,-7.489471E1,2.97448E1,9.218344E0,-4.5891237E0,2.83733E2,-6.8867255E2,-1.6924776E2,4.4681976E2,6.3590717E1,6.8500214E2,-6.5791383E0,-4.1441113E1,-1.9343555E2,5.7783694E0,2.8825342E1,1.1954463E1,2.985083E0,4.168815E0,-5.966504E0,3.4069335E0,1.6029846E1,-2.008724E1,-5.0931404E1,-1.6799685E1,1.4907061E1,3.9361294E1,7.660606E0,-1.0238116E1,5.8977885E0,8.869776E0,3.8377747E1,-2.6413789E0,-1.898606E1],"categories":[],"categories_nodes":[],"categories_segments":[],"categories_sizes":[],"default_left":[0,0,0,0,0,0,0,0,0,0,0,0,0,0,0,0,0,0,0,0,0,0,0,0,0,0,0,0,0,0,0,0,0,0,0,0,0,0,0,0,0,0,0,0,0,0,0,0,0],"id":40,"left_children":[1,3,5,7,9,11,13,15,17,19,21,23,25,27,29,31,33,-1,-1,-1,35,37,39,41,43,45,-1,-1,47,-1,-1,-1,-1,-1,-1,-1,-1,-1,-1,-1,-1,-1,-1,-1,-1,-1,-1,-1,-1],"loss_changes":[1.3738528E6,1.8004354E6,1.5774101E6,5.1183875E5,1.57447E6,1.0140465E6,1.557075E6,3.347716E5,5.0357312E4,1.6512475E5,1.56295E6,9.309018E5,7.145569E5,8.5885275E5,5.2809562E4,4.8086875E3,8.731045E4,0E0,0E0,0E0,1.7893219E4,5.375055E5,1.425072E6,5.790084E5,1.11833E6,7.336075E4,0E0,0E0,2.9425912E5,0E0,0E0,0E0,0E0,0E0,0E0,0E0,0E0,0E0,0E0,0E0,0E0,0E0,0E0,0E0,0E0,0E0,0E0,0E0,0E0],"parents":[2147483647,0,0,1,1,2,2,3,3,4,4,5,5,6,6,7,7,8,8,9,9,10,10,11,11,12,12,13,13,14,14,15,15,16,16,20,20,21,21,22,22,23,23,24,24,25,25,28,28],"right_children":[2,4,6,8,10,12,14,16,18,20,22,24,26,28,30,32,34,-1,-1,-1,36,38,40,42,44,46,-1,-1,48,-1,-1,-1,-1,-1,-1,-1,-1,-1,-1,-1,-1,-1,-1,-1,-1,-1,-1,-1,-1],"split_conditions":[1.6171586E3,2E0,1.0833E4,4E0,7.592857E3,3.57E2,1.0257E4,7.7E1,1.1E1,3.5E1,5E0,2.024E3,1.0907E4,1.0874E4,2E0,7.746E3,6.4307666E2,2.97448E1,9.218344E0,-4.5891237E0,3E0,2.36E2,2.32E2,4E0,7.3E1,1E0,-6.5791383E0,-4.1441113E1,8.891571E3,5.7783694E0,2.8825342E1,1.1954463E1,2.985083E0,4.168815E0,-5.966504E0,3.4069335E0,1.6029846E1,-2.008724E1,-5.0931404E1,-1.6799685E1,1.4907061E1,3.9361294E1,7.660606E0,-1.0238116E1,5.8977885E0,8.869776E0,3.8377747E1,-2.6413789E0,-1.898606E1],"split_indices":[7,0,5,1,6,3,6,3,2,3,0,4,4,5,0,6,7,0,0,0,2,3,3,1,3,0,0,0,6,0,0,0,0,0,0,0,0,0,0,0,0,0,0,0,0,0,0,0,0],"split_type":[0,0,0,0,0,0,0,0,0,0,0,0,0,0,0,0,0,0,0,0,0,0,0,0,0,0,0,0,0,0,0,0,0,0,0,0,0,0,0,0,0,0,0,0,0,0,0,0,0],"sum_hessian":[1.48E2,4.8E1,1E2,1.8E1,3E1,8.5E1,1.5E1,1.5E1,3E0,5E0,2.5E1,8E1,5E0,1.3E1,2E0,5E0,1E1,1E0,2E0,1E0,4E0,9E0,1.6E1,6E0,7.4E1,4E0,1E0,2E0,1.1E1,1E0,1E0,4E0,1E0,2E0,8E0,1E0,3E0,6E0,3E0,1.2E1,4E0,2E0,4E0,1.2E1,6.2E1,1E0,3E0,7E0,4E0],"tree_param":{"num_deleted":"0","num_feature":"8","num_nodes":"49","size_leaf_vector":"1"}},{"base_weights":[8.874722E0,-2.4120272E1,2.6649E2,1.1758732E2,-9.79206E1,4.4982343E2,4.011902E0,6.998265E1,2.6269464E2,-5.258969E2,-9.845393E0,4.304271E1,2.3945898E2,-3.1944736E2,4.07333E2,2.8924982E2,3.3535202E1,4.0906265E2,5.240527E0,-7.225504E1,-5.901299E2,-2.8890372E2,4.346485E1,-1.0592122E1,3.245747E2,-3.183466E1,1.0428092E2,8.089502E0,2.8599049E1,6.928308E0,2.229961E1,3.2932198E0,-7.710767E0,8.882507E0,2.6910475E1,5.631397E0,-5.194686E0,-5.914673E-1,-4.827661E0,-4.0732433E1,-1.7398731E1,-3.0156187E1,-8.287368E0,4.2592387E0,-2.2876158E1,6.3288575E-1,-1.427295E0,2.463539E1,-3.8971356E-1,7.7943115E0,2.6757812E-2],"categories":[],"categories_nodes":[],"categories_segments":[],"categories_sizes":[],"default_left":[0,0,0,0,0,0,0,0,0,0,0,0,0,0,0,0,0,0,0,0,0,0,0,0,0,0,0,0,0,0,0,0,0,0,0,0,0,0,0,0,0,0,0,0,0,0,0,0,0,0,0],"id":41,"left_children":[1,3,5,7,9,11,13,15,17,19,21,-1,23,25,27,29,31,33,35,37,39,41,43,45,47,-1,49,-1,-1,-1,-1,-1,-1,-1,-1,-1,-1,-1,-1,-1,-1,-1,-1,-1,-1,-1,-1,-1,-1,-1,-1],"loss_changes":[1.2729298E6,1.402437E6,8.162526E5,2.9937406E5,3.3119032E6,6.5852325E5,1.173785E6,2.780022E5,4.1236988E5,3.9444175E5,1.1134305E6,0E0,1.7370416E5,7.38525E5,6.917181E4,5.6293125E4,2.0439164E5,1.1359025E5,7.0299555E4,3.262541E3,4.23312E5,3.644122E5,1.3557482E6,1.613593E3,3.3913356E5,0E0,1.5978076E4,0E0,0E0,0E0,0E0,0E0,0E0,0E0,0E0,0E0,0E0,0E0,0E0,0E0,0E0,0E0,0E0,0E0,0E0,0E0,0E0,0E0,0E0,0E0,0E0],"parents":[2147483647,0,0,1,1,2,2,3,3,4,4,5,5,6,6,7,7,8,8,9,9,10,10,12,12,13,13,14,14,15,15,16,16,17,17,18,18,19,19,20,20,21,21,22,22,23,23,24,24,26,26],"right_children":[2,4,6,8,10,12,14,16,18,20,22,-1,24,26,28,30,32,34,36,38,40,42,44,46,48,-1,50,-1,-1,-1,-1,-1,-1,-1,-1,-1,-1,-1,-1,-1,-1,-1,-1,-1,-1,-1,-1,-1,-1,-1,-1],"split_conditions":[3.6946533E3,3E0,3.8342048E3,8.352429E3,4E0,2E0,2.65E2,7.626E3,2.0050791E3,8.044E3,6.2E1,4.304271E1,1.1E1,9.287E3,6E0,2E0,2.85E2,8.9920544E2,3.31E2,2E0,7.8295713E3,1.1825525E3,1.006E4,2.86E2,9.134E3,-3.183466E1,2E0,8.089502E0,2.8599049E1,6.928308E0,2.229961E1,3.2932198E0,-7.710767E0,8.882507E0,2.6910475E1,5.631397E0,-5.194686E0,-5.914673E-1,-4.827661E0,-4.0732433E1,-1.7398731E1,-3.0156187E1,-8.287368E0,4.2592387E0,-2.2876158E1,6.3288575E-1,-1.427295E0,2.463539E1,-3.8971356E-1,7.7943115E0,2.6757812E-2],"split_indices":[7,0,7,6,0,1,3,6,7,5,3,0,2,5,0,1,3,7,3,1,6,7,5,3,4,0,0,0,0,0,0,0,0,0,0,0,0,0,0,0,0,0,0,0,0,0,0,0,0,0,0],"split_type":[0,0,0,0,0,0,0,0,0,0,0,0,0,0,0,0,0,0,0,0,0,0,0,0,0,0,0,0,0,0,0,0,0,0,0,0,0,0,0,0,0,0,0,0,0,0,0,0,0,0,0],"sum_hessian":[1.48E2,1.32E2,1.6E1,4.5E1,8.7E1,9E0,7E0,3.5E1,1E1,1.4E1,7.3E1,2E0,7E0,4E0,3E0,4E0,3.1E1,6E0,4E0,2E0,1.2E1,1.1E1,6.2E1,2E0,5E0,2E0,2E0,2E0,1E0,3E0,1E0,2.7E1,4E0,3E0,3E0,2E0,2E0,1E0,1E0,5E0,7E0,2E0,9E0,5.8E1,4E0,1E0,1E0,3E0,2E0,1E0,1E0],"tree_param":{"num_deleted":"0","num_feature":"8","num_nodes":"51","size_leaf_vector":"1"}},{"base_weights":[8.562671E0,-1.2060419E2,7.1143E1,-3.7475727E1,-5.4195306E2,1.2041967E2,-1.9816553E2,1.4410283E2,-1.5475879E2,7.6289062E0,-7.264185E2,9.0973015E1,4.9787955E2,-3.193942E2,4.3362338E2,1.9897379E1,3.6849658E2,1.9866496E2,-2.4836754E2,-4.904639E0,5.4768066E0,-4.654541E0,-4.1723297E1,1.16126724E2,-3.1458878E2,3.6495728E1,2.2539713E1,-3.93885E1,-1.7568404E2,5.4931154E0,2.7028639E1,8.46421E0,-3.7978272E0,8.549402E0,2.5450457E1,-4.2672E0,1.3626778E1,-2.0788301E1,-1.1326294E0,2.3089688E0,1.5658385E1,-2.8461363E1,2.24563E0,7.975269E0,-6.28479E0,-2.2311523E0,-1.7512241E1],"categories":[],"categories_nodes":[],"categories_segments":[],"categories_sizes":[],"default_left":[0,0,0,0,0,0,0,0,0,0,0,0,0,0,0,0,0,0,0,0,0,0,0,0,0,0,0,0,0,0,0,0,0,0,0,0,0,0,0,0,0,0,0,0,0,0,0],"id":42,"left_children":[1,3,5,7,9,11,13,15,17,19,21,23,25,27,29,31,33,35,37,-1,-1,-1,-1,39,41,-1,43,-1,45,-1,-1,-1,-1,-1,-1,-1,-1,-1,-1,-1,-1,-1,-1,-1,-1,-1,-1],"loss_changes":[1.2129924E6,1.6959679E6,1.3641962E6,9.1673694E5,8.1657275E5,9.105905E5,1.3639515E6,4.664737E5,9.0951425E5,4.306611E4,3.3289525E5,8.628443E5,6.453206E5,8.039465E5,4.4489562E4,1.8468995E5,7.948E4,1.4913873E5,7.84053E5,0E0,0E0,0E0,0E0,1.0467902E6,4.832798E5,0E0,8.095868E4,0E0,2.5890834E5,0E0,0E0,0E0,0E0,0E0,0E0,0E0,0E0,0E0,0E0,0E0,0E0,0E0,0E0,0E0,0E0,0E0,0E0],"parents":[2147483647,0,0,1,1,2,2,3,3,4,4,5,5,6,6,7,7,8,8,9,9,10,10,11,11,12,12,13,13,14,14,15,15,16,16,17,17,18,18,23,23,24,24,26,26,28,28],"right_children":[2,4,6,8,10,12,14,16,18,20,22,24,26,28,30,32,34,36,38,-1,-1,-1,-1,40,42,-1,44,-1,46,-1,-1,-1,-1,-1,-1,-1,-1,-1,-1,-1,-1,-1,-1,-1,-1,-1,-1],"split_conditions":[1.6171586E3,1.5850829E3,1.0833E4,2E0,7.655E3,3.57E2,1.0257E4,8.366E3,7.592857E3,1E0,2E0,8.853857E3,1.0719E4,1.0874E4,2E0,7.7E1,8.9920544E2,3.5E1,6E0,-4.904639E0,5.4768066E0,-4.654541E0,-4.1723297E1,8.977E3,9.255E3,3.6495728E1,1E0,-3.93885E1,8.891571E3,5.4931154E0,2.7028639E1,8.46421E0,-3.7978272E0,8.549402E0,2.5450457E1,-4.2672E0,1.3626778E1,-2.0788301E1,-1.1326294E0,2.3089688E0,1.5658385E1,-2.8461363E1,2.24563E0,7.975269E0,-6.28479E0,-2.2311523E0,-1.7512241E1],"split_indices":[7,7,5,0,6,3,6,4,6,0,0,6,4,5,0,3,7,3,0,0,0,0,0,5,4,0,0,0,6,0,0,0,0,0,0,0,0,0,0,0,0,0,0,0,0,0,0],"split_type":[0,0,0,0,0,0,0,0,0,0,0,0,0,0,0,0,0,0,0,0,0,0,0,0,0,0,0,0,0,0,0,0,0,0,0,0,0,0,0,0,0,0,0,0,0,0,0],"sum_hessian":[1.48E2,4.8E1,1E2,4.1E1,7E0,8.5E1,1.5E1,1.6E1,2.5E1,2E0,5E0,8E1,5E0,1.3E1,2E0,1.1E1,5E0,5E0,2E1,1E0,1E0,1E0,4E0,7.6E1,4E0,3E0,2E0,2E0,1.1E1,1E0,1E0,4E0,7E0,3E0,2E0,1E0,4E0,1.1E1,9E0,5.7E1,1.9E1,2E0,2E0,1E0,1E0,7E0,4E0],"tree_param":{"num_deleted":"0","num_feature":"8","num_nodes":"47","size_leaf_vector":"1"}},{"base_weights":[8.024761E0,2.9186868E2,-1.8967909E1,4.2203662E2,1.5775916E2,1.2708829E2,-9.665379E1,8.1884764E-2,5.0578888E2,-1.6361328E1,2.6550372E2,6.3951714E1,2.92152E2,-3.3463364E2,5.3809563E1,3.696144E1,1.037526E2,5.593506E-1,-1.4636556E0,3.4642334E0,1.4861865E1,2.7365372E2,2.9187286E1,5.4648975E2,1.612017E2,-1.6167825E2,-8.981482E2,-1.5265479E2,2.1342828E2,1.1691895E0,6.612256E0,6.4280276E0,2.135066E1,3.0300188E0,-7.628174E0,3.1956656E1,6.7139893E0,1.28424225E1,2.7314575E0,-2.0412748E1,1.0943187E0,-5.6982424E-2,-5.1306477E1,-1.0146848E1,2.635293E1,-1.2667178E1,1.4457898E1],"categories":[],"categories_nodes":[],"categories_segments":[],"categories_sizes":[],"default_left":[0,0,